de -1.830002 0.502536 1.194087 -0.422437 0.209489 -0.682175 -0.759794 2.400920 -1.118639 0.250311 0.493445 -0.010212 0.257889 -0.486454 -0.237047 0.104488 0.613512 -0.172599 0.772508 -0.215217 -0.934260 0.120786 0.128660 -0.515998 -1.842252 -0.056068 -0.119466 -0.104974 0.275786 -2.262095 1.849629 -0.827295 0.994190 0.906031 0.683478 -0.460455 0.949229 -0.280526 -0.749132 3.632351 0.983514 1.116527 0.464840 -0.181785 0.305467 -0.170077 0.321186 0.850445 -0.885375 1.110006
la -1.075851 -0.171041 0.335587 0.260208 0.039703 -0.990255 -0.541655 1.394692 -0.362007 0.685704 0.970949 -0.323672 0.922863 -0.153326 -0.993129 0.045766 0.650168 -0.939175 -0.192569 0.800012 -0.640066 1.103491 0.559994 0.951285 -1.636504 -1.459623 -0.417578 -0.375114 -0.150117 -2.845833 2.408868 -0.548301 0.900766 0.723727 1.477980 -0.335092 0.577150 0.612108 -0.494592 2.101194 0.678692 0.660576 0.412069 0.414543 1.374827 0.492885 0.010817 0.714062 -0.506660 1.810282
en -2.005249 0.211025 1.150623 -0.587977 -0.745683 -0.609780 -0.266689 1.210052 -0.593011 0.198793 1.391713 0.671950 -0.285458 -1.584089 -1.038019 1.221814 0.281441 -0.242011 -0.453412 -0.700501 -1.558812 0.925545 -0.905553 -0.864814 -0.843379 -0.812690 -1.546985 0.554754 -0.027640 -0.902561 1.564174 -0.012005 0.353390 1.671335 1.348118 -1.892227 0.973193 0.102467 0.535420 2.999523 -0.100534 0.788024 0.139585 0.128880 2.255106 -0.538019 -1.064072 -0.556352 -1.078587 1.427250
y -0.907718 -0.122192 -0.220549 -0.839213 -0.133522 -1.051905 0.312676 1.747569 0.147547 1.108141 0.422135 0.382297 -0.241200 -1.991575 0.448152 0.396793 1.433944 0.508781 0.059151 -0.174157 -0.851350 0.144885 1.109402 1.302976 -1.395183 -0.147537 -0.510923 -0.325851 0.567060 -1.718463 1.160739 -0.282755 1.393093 -0.376552 1.238817 -1.120047 1.008769 0.410150 -1.086752 2.895469 -0.342316 0.640794 0.215402 0.149219 0.918078 0.526151 0.051119 0.890209 -0.685804 1.095967
el -1.244142 0.736759 -0.266791 -0.446475 0.124349 -1.293722 -0.730987 0.898884 -0.152125 -0.396064 1.205728 0.603330 0.316427 -0.690422 0.812521 1.247249 0.352518 0.195178 -0.410444 -0.209521 -0.554706 0.965059 0.547305 0.348015 -1.605138 -0.391160 -0.428045 0.342246 0.907382 -1.400739 2.664326 0.207478 1.044830 1.104732 0.283605 -1.504880 0.996686 0.374498 0.882470 2.552728 0.616667 1.220036 0.483443 0.637197 1.407288 0.532779 0.783167 0.431009 -0.595715 1.751261
que -0.601069 0.174259 -0.027913 -0.690592 0.323828 -1.150922 0.674612 0.229226 -0.133700 -1.094296 1.346998 0.565343 -0.417695 -0.310295 -0.848022 0.530530 0.844347 0.844632 -0.387270 -0.215684 -0.618003 1.539912 -0.125004 1.518755 -1.111680 -0.687561 0.250742 -0.451910 -0.053505 -2.245123 2.405751 0.682344 1.822036 0.450814 1.268092 -0.941082 0.103731 -0.404882 -0.142783 2.643126 0.168605 0.707772 0.812607 0.367668 1.328367 0.881357 0.651792 0.586948 -0.475270 2.627152
a -1.465290 -1.627101 0.025483 -0.199291 0.490001 -0.133787 0.144059 1.225042 -0.063415 0.211616 0.665206 1.078362 -0.793251 -0.038664 -0.501336 0.034030 0.232276 -0.224341 0.351918 0.147345 -1.393955 0.075435 -0.250130 1.760598 -2.247982 -0.452726 -0.049786 -1.048435 0.239968 -1.824738 2.281246 -1.010867 2.528388 -0.188913 0.621463 -1.451125 0.164315 -0.205968 0.219907 1.751570 0.171497 0.719927 0.886043 1.585736 1.604423 -0.066419 0.301918 0.322743 -1.275118 1.665226
del -0.570367 0.075034 -0.537703 -0.410094 -0.609597 -1.422722 0.920984 2.128938 -0.090289 0.443720 1.255115 -0.582579 0.676458 -1.348202 0.796572 0.939611 0.082666 -0.422449 -0.577395 -0.056541 -0.332658 0.655556 0.107547 0.836746 -1.880804 -0.906798 -0.115704 -0.201691 0.701216 -2.244579 1.869375 0.142054 0.186271 0.512965 -0.404763 -1.749245 0.415443 1.293672 0.464233 2.720961 -0.381426 0.620775 1.219874 -0.974661 1.619314 0.464639 1.198654 0.616810 -0.472252 2.220041
los -1.312743 -1.278999 0.232435 -0.680467 0.457705 -0.892170 0.214591 0.697345 0.012410 0.918182 2.038614 -0.125958 -0.427664 -0.304252 -0.368830 1.793995 1.441771 0.658360 0.359554 -0.051198 -1.460886 -0.150517 -0.159779 0.746154 -1.250014 -0.533087 0.967906 0.304503 1.322556 -2.842881 1.982584 0.040586 0.918585 1.047743 0.364929 0.017854 0.703618 -0.422512 0.395851 2.951717 0.695877 0.452929 0.263084 -0.626107 1.067349 -0.090178 -0.429039 0.526885 -0.545804 1.967143
se -1.109768 -0.133521 -0.092310 -1.173633 -0.159847 -0.190787 0.236283 0.574760 -0.362942 -0.645413 1.077391 0.790655 0.063136 -0.142496 -0.591706 0.781853 0.639473 1.051644 0.401819 -0.622662 -1.016989 0.999656 -0.205509 1.128485 -1.317038 -0.572380 -1.082545 -1.858674 0.033310 -1.771058 2.776592 1.009066 0.870219 1.839975 1.232776 -0.342756 0.373974 0.543833 0.633285 2.974900 0.897319 1.019477 0.160514 0.745870 1.652818 0.950938 0.500071 0.557101 -0.449062 1.753143
por -1.187505 0.189448 0.639093 -0.931135 1.370893 -1.399904 -0.475833 1.559911 0.161064 0.237848 0.884713 -0.694548 0.154249 -0.977702 -0.369089 -0.206082 1.168499 -0.782493 0.419384 0.396497 -0.502257 -0.037946 -0.171781 0.394567 -1.485987 -0.790805 0.162482 0.750605 0.052678 -1.144193 1.568512 0.403560 2.480110 0.689393 1.016726 -2.339028 -0.495171 -0.142584 -0.318273 2.777956 0.437082 0.291627 0.454589 0.421404 1.451008 -0.293412 0.198756 0.127260 -0.709018 1.957459
las -0.988253 -0.342420 -0.753134 -1.468435 -0.560896 -1.265192 0.439229 1.460630 -0.130303 0.575559 1.059172 0.180220 0.337946 -1.602170 -0.492205 -0.087393 0.820741 -0.189713 -0.743260 -0.739355 -0.002671 1.642882 -1.371997 0.403463 -1.529170 0.208376 -0.590780 -0.555896 -0.285562 -2.404543 1.840126 -0.686789 1.047515 0.651393 0.624309 -0.767336 0.131729 -0.445321 0.043590 3.604966 -0.174682 0.090422 0.678188 0.852748 0.458310 1.530521 0.832958 -0.666149 -0.293267 1.446732
un -0.211312 1.213544 0.178116 -0.398599 0.335780 -1.293136 0.696307 0.956403 -1.055864 -0.869362 0.213364 0.076472 -0.838541 -0.544777 -0.220817 0.262491 -0.019503 1.295137 -1.309666 -0.730932 -0.963317 0.455949 0.503532 0.447694 -1.221262 -0.323280 -0.294192 -0.239875 0.721919 -1.166314 2.651852 0.322100 1.633644 0.827963 0.787994 -1.510811 1.206617 -0.657593 0.300098 2.424069 0.835261 1.386524 0.687118 0.887748 1.259313 -0.235190 1.363481 0.829566 -1.321436 2.047907
con -0.945386 0.046861 0.908744 -0.699119 0.634675 -0.174377 -0.267794 1.287678 -0.608912 0.773054 1.310449 0.712533 -0.997716 -1.759719 -0.040369 0.302904 0.208726 0.785743 -1.069041 -0.160905 -0.661161 0.188942 0.313694 0.681595 -1.164846 0.475841 -0.211719 -0.525344 -0.189874 -0.695942 2.260408 0.306393 2.691567 0.370221 0.776857 -0.855265 0.718932 0.179046 -0.958999 3.160033 1.113867 0.616867 0.232184 0.224938 1.442699 0.620454 0.684052 0.598982 -0.910775 1.298895
una -0.556212 0.128312 0.502995 -0.081324 0.380891 -0.386535 0.462729 1.039865 -0.446946 0.134906 0.818489 0.124276 -0.577057 -1.232823 -0.901479 -0.447623 -0.086219 0.440454 -1.150126 0.198870 -1.519480 1.240170 0.639251 0.718293 -1.322316 -0.124119 -0.071796 -0.786367 -0.863423 -1.673016 2.831199 -0.009796 1.653345 1.543630 1.320926 -0.597258 1.139144 -0.262079 -0.955442 2.058997 0.814420 -0.168963 -0.088188 0.164087 2.027014 0.461241 0.481761 0.347487 -1.062197 2.428455
su -1.823351 0.006710 0.844824 -0.588167 0.348167 -1.048898 0.512793 1.194841 -0.396280 0.229293 1.206022 0.745707 -0.057176 -0.154016 -0.015198 -0.490022 0.242520 -0.198258 -0.536562 -0.395550 -0.931618 1.024842 1.233329 0.413677 -1.481546 0.414316 -0.569647 0.353403 0.709340 -1.927245 1.741213 0.023481 1.459016 0.602112 0.332707 -0.751869 0.818718 0.492732 -1.366311 1.210243 1.307970 1.331261 0.579535 1.176600 2.100669 0.718028 -0.071174 0.783279 -1.278046 1.764310
como -0.944042 0.943503 0.544923 -1.441618 -0.078743 -0.606677 -0.000534 0.838480 0.906828 0.535139 0.594157 0.475685 -0.581781 -0.234139 -0.163650 0.539815 1.377714 -0.184831 -0.493708 -0.463782 -0.221518 1.732645 0.021316 1.579643 -0.762283 0.124053 -0.151542 0.745509 0.842731 -1.420541 1.826410 -0.257122 1.656059 1.381495 1.312085 -0.388865 1.323590 0.149696 -0.161589 2.763176 0.152154 0.289184 -0.297790 0.504824 0.908782 0.266088 0.563658 0.990357 -1.499802 1.615020
para -0.902286 0.072319 0.022568 -0.251064 0.160314 -1.117145 -0.303560 1.296516 -0.959955 0.169361 0.028166 0.601432 -0.199406 -0.395012 -1.097700 1.066653 1.010363 0.514538 -0.003698 -1.138731 -0.405190 0.555218 0.998898 1.364999 -0.332619 -0.119424 -0.140677 0.091345 0.217910 -1.769110 1.825991 -1.223025 2.479583 0.574568 0.128074 -0.695218 1.659771 -0.005529 -0.314738 2.965791 0.368802 -0.047771 0.592776 1.380463 1.694037 -0.098144 0.477467 -1.180079 -1.317794 2.323407
al -1.360550 -1.035593 -0.099573 -0.584572 0.593662 -0.971278 0.004802 1.296560 -0.317002 0.164381 0.391541 0.612383 0.123331 -0.771659 0.133500 0.808090 0.315550 -0.852543 -0.188431 -0.034471 -0.545059 -0.058444 0.504911 1.536612 -2.271421 -0.754502 -0.158298 -0.359154 0.584876 -1.778353 2.571401 -0.532401 1.556160 -0.125264 -0.235726 -2.139656 0.854561 0.693225 0.469404 2.005016 -0.078963 0.985155 1.495209 1.121116 1.987559 0.227633 0.940888 0.914280 -0.313027 0.940657
es -0.708101 1.526239 0.167440 0.185233 0.480287 -0.598200 0.554871 0.975228 0.486141 -0.349369 0.824376 0.411013 0.158618 -0.887995 -0.420070 -0.037117 0.064174 0.222431 -0.422269 -0.034803 -0.622872 1.357300 0.231556 0.726320 -0.003986 0.031203 0.688634 -0.484013 0.276876 -1.117897 3.097161 -0.705760 1.109333 1.718088 1.511161 -0.955483 1.496203 -0.459828 0.510216 2.839934 -0.381053 0.379298 0.318050 -0.311070 1.403767 0.067769 1.138167 1.388793 -0.656151 1.831190
más -0.664679 0.600136 -0.344079 -0.209581 0.220603 -0.814922 0.795307 0.860026 0.129669 1.404578 1.672380 0.285447 0.069633 -2.389697 0.023920 0.686406 0.547794 0.161197 -0.842665 -0.297861 -0.513481 0.953682 -0.508312 0.640147 -0.547950 0.153493 0.468079 0.061692 0.423833 -1.701377 2.421232 -0.628312 1.043080 0.559306 0.144379 -0.003633 0.220448 -0.598646 -0.682119 2.432098 0.297295 0.780931 0.874485 0.370537 1.450529 -0.413495 0.743065 0.778649 -1.054193 2.166567
no -1.554167 0.495427 0.528745 -0.571384 -0.176715 -0.981080 1.122608 -0.158530 -0.084121 -0.977256 1.203619 0.134511 0.311364 -0.176631 -1.771948 0.154858 1.095361 0.695217 0.439214 0.048771 -0.404218 1.320571 -0.430128 0.956810 -0.644509 0.061623 0.812319 0.110137 0.308966 -1.351087 2.040926 -0.389164 1.557894 0.034117 1.069779 -0.537460 0.528754 -0.337602 0.481895 2.962542 -0.013686 0.777404 0.953686 0.256551 1.868737 0.852935 0.262837 -0.136471 -1.073331 2.456976
o -0.124519 0.794365 0.499343 -1.272669 -0.084691 -0.694516 0.794810 1.176927 0.075682 0.468100 0.648038 -0.323265 -0.154247 -0.063012 -0.678963 0.432496 1.302336 0.270796 -0.676536 0.539453 -0.931522 0.244296 0.634123 0.934027 -0.999759 -0.242200 -0.159060 -0.240664 0.474574 -0.716324 1.736864 -1.463011 0.815343 0.965447 0.982147 -0.375024 1.380732 -0.592792 -0.157525 3.551839 -0.506753 -0.275898 0.974049 0.052290 1.605993 0.918289 1.197682 0.271227 -0.821557 0.631719
El -0.640140 0.066554 -0.080530 -0.663312 -0.184628 -1.657597 -0.157751 1.302713 -0.685326 0.125254 0.356432 -0.630054 0.083643 -0.833232 0.036605 0.142915 -0.267544 0.110603 -0.181521 -1.058014 -0.753809 0.572136 0.763326 0.147513 -0.993842 -0.192450 0.497785 -0.278774 0.332798 -0.838891 2.882523 -0.142974 0.726858 1.193173 -0.100508 -1.281229 0.517727 0.766525 0.995585 2.733095 0.314267 1.210553 0.826155 0.175030 0.770345 -0.095333 0.814113 1.053052 -0.832900 2.283214
fue -2.071194 0.441875 0.328974 -1.173178 0.618595 -0.599717 -1.135189 1.202259 -0.720580 0.017140 0.148498 -0.460971 -0.182979 -1.066805 0.494534 -0.387119 0.240684 -0.734146 0.027600 -0.112218 -0.553990 1.176943 0.488756 0.049969 -1.178187 -0.948456 -0.257041 1.363972 0.398796 -0.992841 1.655292 0.402345 1.758019 0.591281 0.521137 -1.296864 -0.092884 -0.027510 0.102347 1.822423 0.630301 1.112563 -0.340257 0.388366 1.236089 -0.400898 0.435987 1.209378 -2.078998 3.076280
of -0.662072 0.824554 -1.023420 -0.517705 -0.977175 -0.032675 0.185221 3.410863 1.976597 0.378733 0.021021 -0.215527 -1.052518 0.242610 -0.362081 -0.398931 -0.150651 -0.499167 1.313727 -0.007185 -1.491767 1.159324 -0.089635 -0.205809 -2.161063 0.281571 1.205480 0.210193 1.114690 -1.608024 1.149977 -2.461109 0.406130 -0.354075 1.222581 -1.646371 -0.687502 0.176466 2.617996 1.857054 2.256673 -0.158824 -1.115128 -0.793054 -0.095367 -0.338036 0.074795 0.180113 -0.802795 0.598620
La -0.329526 -0.594405 -0.046334 -0.190656 -0.056790 -1.075747 -0.342655 1.775282 -0.193101 1.246063 1.102404 -0.849947 0.627051 -0.639159 -1.098776 -0.775866 -0.424556 -0.427739 0.102740 -0.207204 -1.044312 0.669679 0.827612 0.360216 -0.915855 -0.169519 -0.074611 -0.477807 -0.709246 -1.403967 2.712166 -0.448307 0.548051 1.471380 0.986633 -0.306443 0.458523 0.759126 0.003870 2.590434 0.321535 0.295914 0.454364 -0.137228 1.158496 -0.085229 0.273123 0.796592 -0.341664 2.395934
lo -1.033655 0.249455 0.178292 -0.373653 0.507559 -1.071470 0.506618 0.314733 0.403249 -0.411738 1.029368 0.815741 0.138503 -0.221646 -0.510423 0.260750 0.762301 0.714162 -0.026769 0.033488 -0.119942 1.381258 0.112428 1.262125 -1.345698 -0.394363 0.359740 -0.452210 0.472098 -1.966595 1.873558 0.088739 1.337778 -0.246592 0.841081 -0.874183 0.357751 0.002244 -0.117061 2.046545 0.290505 1.006016 1.003842 0.840394 1.499893 0.687416 0.521252 1.035838 -0.219148 2.239349
En -1.584850 -0.366693 0.044908 -0.965444 -0.110245 -0.818580 -0.987643 1.015971 -0.021911 0.670467 0.255380 -0.032931 -0.147569 -0.889925 -0.501552 -0.114134 -0.164934 0.560722 0.137439 -0.697228 -1.476473 0.973377 -0.191597 -0.148992 -1.437204 -0.277484 -0.601426 -0.434814 0.670788 -0.989881 2.271120 -0.167821 0.606589 1.622026 0.621422 -0.627293 0.396190 0.475217 0.602062 2.327126 0.998805 1.296338 0.027171 0.564223 1.558080 0.315011 0.109837 0.253650 -0.821519 1.630302
sus -1.407095 -0.796455 0.664521 -1.317760 -0.145641 -1.441156 0.406685 1.115405 0.045787 0.698689 1.294806 0.457884 -0.534729 -0.502347 -0.558452 0.494049 1.140488 0.190163 -0.591273 -1.412610 -0.838905 0.470619 0.309115 0.720344 -1.644163 0.503027 -0.342795 -0.145166 0.660789 -2.332661 1.146909 0.004679 1.305046 0.303394 0.279249 -0.203636 0.320736 -0.366785 -1.308679 1.982676 0.997252 0.966419 0.725406 0.865500 0.925484 0.935337 0.330748 -0.097044 -1.005655 1.647793
entre -0.243169 -0.568800 -0.385578 -0.613339 0.312963 -1.072884 -0.503825 1.164167 0.202542 0.506893 1.757705 0.341942 -0.743779 -1.360587 0.249033 0.301210 0.206335 1.048244 -0.201864 0.265191 -0.580949 -0.099153 -0.738777 -0.312600 -1.926364 0.069376 -0.636918 -0.400784 0.411028 -1.771620 1.761703 0.417509 0.937585 0.996798 1.381652 -0.658656 1.118439 -0.804594 -0.165710 2.975414 0.062121 0.808595 -0.345151 0.016446 1.613812 0.435389 0.415830 0.142092 -0.620333 1.333587
también -1.015094 0.331636 0.801341 -0.630288 -0.913966 -0.385526 -0.374582 1.074461 0.510770 0.167434 0.831487 0.541970 -0.518029 -0.668720 -0.788896 0.330877 0.689848 0.582676 -0.779843 -0.404274 -0.332916 1.496170 0.278536 0.934300 -0.894265 0.150592 -0.310390 -0.177047 0.928204 -1.616490 2.378917 -0.469356 0.700240 1.243753 0.826848 -0.673796 0.392871 0.062054 -0.448147 2.657803 -0.095348 0.211327 0.394072 -0.221082 1.016326 -0.376305 0.224760 0.497611 -1.048429 1.017912
the -0.004079 1.029198 -1.166442 -0.239727 -1.412341 0.421642 0.100665 2.925200 1.542372 -0.095326 0.341105 -0.097045 -0.967726 -0.138288 -0.797021 -0.137797 -0.577590 -0.043905 0.621954 -0.109792 -1.673370 0.809092 -0.555753 -0.027902 -2.563920 0.851656 1.716764 0.055813 1.194999 -0.863051 1.059257 -2.081893 1.005820 -0.642978 0.317126 -1.260264 -0.502607 0.197878 1.795103 1.281799 2.176248 -0.370775 -0.837037 0.030203 0.404724 0.529677 -0.200493 0.378098 -1.126020 1.636294
sobre -0.522237 0.828994 0.494583 -0.020557 -0.095995 -1.694805 -0.027318 1.313505 0.604107 -0.085160 1.232447 -0.020242 -0.292258 -1.170750 -0.696857 0.968949 0.254561 0.751574 -0.672701 -0.311983 -0.589377 -0.269774 -0.130572 -0.465728 -1.514077 -0.232006 -0.630804 -0.548236 -0.657928 -2.750680 1.254671 -0.394551 1.395266 0.950724 0.433482 -1.523504 0.883486 0.020122 -0.369891 2.335530 0.438506 -0.256906 1.166904 -0.124971 1.064362 0.974512 -0.756409 0.438871 -0.108877 2.010270
son -0.465617 0.632956 0.029486 -1.541425 0.097327 -1.116050 0.753165 0.408524 0.447811 1.185329 1.472639 -0.203381 0.122299 -0.888425 -0.761388 0.957280 1.464306 0.067959 -0.233456 -0.228233 -0.661904 0.571351 -0.944198 0.678983 -0.439517 0.432966 0.589606 -0.337240 0.875917 -1.276976 2.260959 -1.208106 0.336513 1.039234 1.405795 -0.129782 0.529024 -1.048440 0.050195 3.737705 0.014918 -0.088278 0.523675 -0.322720 0.276723 0.329524 0.908453 0.235570 0.215272 0.650267
web -0.171371 0.744036 -0.039071 0.413799 -1.352480 -1.289134 -0.363449 3.017251 -0.206468 0.453549 2.231158 1.822106 0.807621 -0.831410 -0.427626 1.509018 0.907926 -0.944759 0.208167 0.294743 0.143341 -0.152302 1.114121 -0.914140 -1.420796 1.362226 1.547131 0.577923 -0.608358 -0.867045 0.371065 -0.970287 0.570772 1.591798 1.270040 -1.131655 0.142981 0.484925 0.012196 1.275233 1.159181 1.709750 0.293437 -0.078854 0.890514 -0.141309 0.573883 -0.516180 -1.518372 0.535453
and -0.014155 1.194111 -1.079291 -0.826665 -1.407947 -0.862915 0.328674 2.226731 1.708996 0.147401 0.548334 0.516664 -1.380689 -0.048182 -0.353131 -0.420694 -0.244218 0.675751 0.891506 0.776779 -1.752502 0.976290 0.704220 0.102664 -1.436304 1.295413 0.857210 0.038207 1.545391 -0.602171 1.219358 -2.562338 1.242981 -1.360785 1.696113 -1.055015 -0.885099 0.647275 0.984942 1.081186 2.303960 -0.035919 -1.271422 -0.128421 -0.220807 -0.288397 0.436860 -0.119913 -0.499131 1.536168
este -1.059555 0.245227 0.230734 -0.757378 -0.035261 -1.448365 0.412680 0.982417 0.298777 0.169602 0.577081 0.410731 0.377161 -0.086845 0.270946 0.526474 0.153102 0.357997 -0.313589 -0.556631 -0.805263 1.399204 -0.015822 0.477973 -0.980118 -0.315650 -0.253259 -0.279535 0.483641 -1.503311 1.861167 -0.115949 1.040986 0.852077 0.155340 -0.933506 0.677677 -0.058101 0.397209 1.835660 0.906036 1.316944 1.124712 0.392061 1.962453 0.174030 0.451308 0.695694 -0.402475 1.480058
dos 0.235895 0.019632 0.733998 -1.266720 0.300819 -0.447164 0.217275 0.633919 -1.162532 1.218535 0.972413 -0.249945 -1.013517 -1.202820 -0.051694 0.679875 0.566425 0.105104 -0.616615 -0.457855 -0.671524 0.682014 -0.584020 0.276947 -1.766767 -0.058999 0.178143 -0.937420 0.583557 -1.155973 1.606794 -0.024093 0.607203 0.767477 1.252846 -0.676569 0.748938 -0.794117 -0.385817 3.050904 1.158956 1.443516 0.530518 0.050925 1.148556 0.771641 -0.068078 -0.394095 -0.938155 1.030348
pero -1.846096 0.654669 0.320182 -1.082528 0.409004 -0.673780 0.260774 0.181373 0.036016 0.135279 0.980344 0.827879 0.031109 -0.449612 -0.359900 0.126149 1.428641 0.378473 -0.356715 0.338734 -0.429270 1.579905 -0.064744 1.165662 -1.219128 -0.387948 0.064575 0.204682 0.386454 -1.351823 1.507790 -0.374385 1.316192 -1.124736 0.873078 -1.007343 0.709240 -0.846590 -0.323146 2.007103 0.813769 0.564227 -0.064458 0.735713 1.610432 0.427741 0.334557 0.943499 -0.522546 2.132395
ser -1.451518 0.878103 0.291509 -0.825664 0.496849 -1.099182 0.856986 0.394525 -0.416842 0.155146 0.824187 -0.732460 0.538735 -0.490968 -0.414497 -0.031283 1.455501 -0.750620 0.252512 -0.292140 -0.255675 0.925979 -0.001853 1.020916 -0.445073 -0.137624 0.409690 0.590038 0.651966 -0.875860 1.865632 -0.985214 1.553087 0.775678 0.733538 -0.959134 0.658736 -0.905692 0.206541 2.462781 0.238562 0.136551 0.936475 0.491173 1.700214 -0.343984 0.646061 0.369337 -1.253535 2.021235
desde -1.249372 -0.253555 -0.314958 -0.710993 -0.121126 -0.504088 -0.751194 2.031252 -0.548886 0.445619 1.509914 0.411533 0.811982 -1.617813 0.674211 0.797375 0.295387 0.215669 0.743958 -0.300284 -0.838011 0.001890 -0.627503 -0.018522 -1.288342 -1.087467 -1.378004 0.294894 0.274037 -1.537455 1.005011 -0.237055 0.754576 0.560745 0.933147 -0.767158 0.414900 -0.230574 0.390797 2.191394 0.384800 0.612370 0.525969 0.017737 2.161882 -0.270347 0.177005 0.374154 -0.402685 1.485257
hasta -1.448494 -0.401104 -0.677596 -0.716368 -0.009415 -0.328767 -0.243426 1.602476 -0.977965 0.709946 1.362010 0.471749 0.707136 -1.440233 0.479495 0.416819 0.698858 0.430844 0.390006 -0.096045 -1.020649 0.553335 0.120846 -0.067502 -1.285654 -1.351474 -1.238993 -0.503545 0.588667 -1.227705 1.236923 -0.270490 0.276847 -0.085424 0.758935 -0.621445 0.139564 -0.512792 0.497428 2.050824 0.520287 0.949779 0.485771 0.431038 2.365373 -0.205715 0.203819 0.241981 -0.500841 1.752998
parte -0.801436 -0.260384 -0.126203 -0.974088 -0.210254 -0.959293 0.150580 0.947450 0.089972 0.604666 0.995260 -0.141778 0.455570 -0.511105 0.213422 0.184664 0.188060 -0.100923 -0.455935 -0.304449 -0.828442 0.942891 0.190633 0.245025 -1.292818 -0.525482 -0.216431 -0.081201 -0.173086 -1.857950 1.755662 -0.124184 0.779531 0.261892 0.742187 -1.093262 0.359354 0.369278 -0.459229 2.288608 0.727860 0.383199 0.256109 -0.275125 2.103862 -0.005524 0.550556 0.648155 -0.436998 1.182260
ha -0.731689 1.314569 0.638978 -0.625951 0.105020 -0.887424 -0.104009 0.738619 0.479296 -0.384098 1.080301 -0.028644 0.278985 -0.663970 -0.097014 0.486058 0.026461 -0.316031 0.429134 -0.023128 -0.255703 0.978177 -0.801468 0.447252 -0.922102 -0.527895 -0.107771 0.517357 0.169813 -1.683065 1.752364 0.033235 1.966029 0.918716 1.084080 -0.695174 -0.845888 -0.034182 -0.116028 1.740994 0.035514 1.573593 0.331151 0.363076 1.534982 -0.471187 1.017646 0.712614 -1.032840 2.540906
Los -0.574492 -1.420374 -0.074941 -1.297733 0.050050 -1.396740 0.005606 0.563293 -0.498473 1.464565 1.433106 -0.616666 -0.384878 -0.103287 -0.745995 0.912907 0.815522 0.570501 0.407713 -0.906496 -1.556026 0.000446 -0.005761 0.797853 -0.666329 -0.237969 1.044608 0.064998 0.964480 -1.337159 2.298675 -0.610365 0.343756 1.024775 0.186543 0.466652 0.225455 0.077113 0.355371 2.934557 1.091080 0.270096 0.810156 -0.760100 0.728530 -0.626688 -0.000851 0.282718 -0.460965 1.546437
le -1.153521 -0.520250 0.966414 -0.565244 0.016512 -0.584162 0.146027 0.914729 -0.172133 -0.708518 0.073893 0.633695 -0.974817 1.003426 -1.344257 0.336489 0.630202 0.541448 0.072538 -0.078158 0.312242 0.977642 0.658693 1.018299 -2.049711 -0.579361 0.247696 -1.215435 0.088023 -2.316294 1.292667 -0.102915 0.778005 -0.398969 0.351624 -0.824177 0.008966 0.409726 -0.933642 1.437799 1.102244 1.781934 1.319543 1.686258 1.487688 1.223926 0.651330 1.604643 -0.409464 1.896362
esta -1.086802 -0.171109 0.640954 -0.494785 0.440080 -1.159981 0.031181 0.684688 0.408612 0.640998 0.731576 0.419158 0.785924 -0.291286 -0.579885 -0.063805 0.287871 -0.282600 -0.086996 0.295549 -0.949739 1.570029 0.340459 0.750509 -0.990492 -0.076132 -0.023230 -0.517129 -0.366619 -1.653882 2.151354 -0.327845 1.485415 1.256243 0.636638 -0.243506 0.673884 -0.052927 0.023358 1.444366 0.834930 0.846997 0.618677 0.078950 1.945135 0.328331 -0.264428 0.439629 -0.560018 1.753498
años -0.915335 -0.476117 -0.457307 0.031700 -0.098736 -0.264448 0.130221 1.931311 -1.002619 0.963677 1.313968 0.103085 -0.045876 -1.483509 -0.112023 0.066110 0.473291 0.851850 -0.065797 0.101165 -0.655609 0.260193 0.377167 0.289883 -1.490399 -0.890514 -0.553052 0.014667 1.479231 -1.695456 0.880616 0.370380 0.785710 0.662054 1.205352 -0.450563 -0.501724 -0.659670 0.146009 1.207061 0.620155 1.978092 0.505521 0.434920 1.158232 -0.125185 -0.053064 0.212259 -1.845275 2.293922
durante -1.548841 -0.333139 -0.845490 -0.536609 -0.631062 -0.368215 0.088647 1.428761 -1.295021 0.822045 1.227739 -0.193280 0.347720 -0.748370 0.333672 0.353962 1.311188 0.459292 -0.303727 0.621001 -0.216331 0.689284 -0.317417 -0.106483 -1.684736 -1.014859 -1.184709 0.346479 0.822962 -1.638830 1.311464 0.081421 0.490789 0.807200 0.460643 -0.481629 -0.313966 -0.424758 0.380919 1.751559 0.791787 0.601153 0.202115 0.702232 1.559025 -0.200194 0.121580 0.347502 -1.356273 1.966870
era -1.089626 0.107372 -0.520524 -1.015218 0.148166 -0.765323 0.707081 0.590994 -0.260793 -0.529352 0.517779 0.160514 -0.515818 -0.825829 -0.085401 -0.412020 0.367732 0.300556 0.044684 -0.026484 -0.233583 1.408919 1.332121 0.341818 -0.314276 -0.556628 0.408828 0.566839 0.130127 -1.793776 1.939269 -0.093419 1.426938 -0.012642 0.617103 -0.209072 0.687762 -0.310086 -0.130204 1.559914 0.434721 0.325206 0.596902 0.025124 1.657538 0.343271 0.700601 1.384984 -1.587164 2.557515
donde -1.169364 0.134499 0.053504 -1.076855 -0.627255 -0.065196 -0.549090 1.074278 -0.244298 0.591213 1.186618 1.382936 -0.326340 -0.240158 -0.343240 0.866198 0.569087 0.173563 -0.294985 -0.817863 -0.914447 1.388840 -0.504943 0.291458 -0.982284 -1.060956 -1.283393 -0.375820 0.197127 -1.243562 1.206448 0.381565 0.674832 0.094067 1.369819 -1.258859 1.531447 -0.135749 -0.273991 2.228325 0.504393 0.860377 0.508987 0.351934 1.473262 -0.203723 0.245687 1.024415 0.023922 1.313283
e -0.561497 0.037162 0.250903 -0.635981 -0.962241 -1.649516 -0.005213 1.185243 0.678185 0.545153 1.352906 -0.381142 -0.696816 -0.200710 -0.558108 0.487187 0.680236 1.076305 -0.525873 -0.294316 -0.332383 -0.526658 0.325603 0.178378 -1.414497 -0.002443 -0.897399 -0.125889 -0.394252 -1.316201 0.750095 -1.351925 1.506846 -0.426950 0.742672 -0.509567 0.833350 0.783797 -1.418108 3.289789 -1.219818 1.034843 -0.208767 0.205711 1.004083 0.300863 0.406420 0.878993 -0.964268 1.237602
San -1.095738 -1.143524 0.608622 -1.730428 -1.330998 -0.429278 -1.630182 2.708208 -0.135012 1.403388 1.475733 0.282069 -0.101398 0.325744 0.505669 0.337228 -1.176899 -1.417436 0.736772 -0.148385 -0.703448 0.703122 0.016600 -0.513989 -0.542221 -1.001389 0.177208 -0.899149 -0.247458 -0.520796 2.016760 -0.399541 0.381107 0.008752 0.560677 -0.663631 1.714092 -0.282961 0.926383 1.492757 -0.798593 1.212317 1.695707 -0.899800 -0.643917 -0.307669 0.199224 0.729326 -0.483129 1.913277
año -1.708846 -0.210965 -0.390767 -0.255235 -0.045386 -0.481911 -0.389407 1.868862 -0.091168 0.907336 0.746826 0.803182 0.465824 -1.097749 -1.012491 0.065834 -0.061770 0.315959 -0.270251 0.047613 -1.493476 1.063717 1.183927 -0.596784 -1.251921 -1.431418 -1.105619 -0.431548 1.316343 -1.193019 1.137348 0.337240 0.495734 0.514877 -0.441202 -1.256430 -0.122142 -0.006504 1.300497 1.455170 0.652749 2.040756 -0.083836 0.294050 1.051152 0.180423 0.345996 -0.614177 -1.274023 1.817690
puede -0.786430 0.755459 0.591160 0.307526 0.339854 -1.157267 1.163227 0.537597 -0.051620 -0.645006 0.574730 -0.037777 0.352494 -0.123430 -0.689133 0.360519 0.919678 -0.102302 0.035561 0.249884 -0.802612 1.027825 -0.028916 1.649722 -0.382981 -0.275020 -0.119699 -1.453357 0.548103 -0.500228 2.481974 -1.733354 1.207533 1.361682 0.983436 -0.635703 0.763567 -0.836447 0.744104 2.308577 0.079407 0.006418 1.102782 0.618256 2.165695 -0.429113 0.398080 -0.140246 -0.395968 1.240739
ya -1.140503 0.793360 0.360000 -1.070420 0.088749 -0.788185 0.408853 0.387825 0.015179 -0.078414 1.142331 0.649917 0.505660 -0.444860 -0.235977 0.499346 1.170434 0.335856 0.047822 0.245945 -0.171280 1.546167 -0.087748 0.776539 -0.757666 -0.858752 -0.127827 0.215592 0.119068 -1.401804 1.375864 0.281514 1.469907 -0.410177 1.116082 -0.469084 0.165986 -0.836079 0.062971 1.888892 0.220747 0.983088 0.266047 0.184538 1.529930 0.312404 0.271225 0.576866 -0.776152 2.238941
está -0.615358 0.969147 0.902531 -1.004645 0.053575 -0.449518 0.256574 0.995728 0.132264 0.183037 1.212262 -0.059876 1.139168 -1.185163 0.224111 0.325355 0.131745 -0.202824 -0.178786 -0.429613 -0.419654 0.424779 -0.041365 0.519927 -0.280592 -0.372066 0.206061 -0.356517 -0.270408 -1.052868 1.844014 -0.118516 1.161670 0.800633 2.328433 -1.806887 0.377573 -0.091481 -0.027597 1.759990 0.625439 0.317123 0.874077 -0.428449 1.940699 0.029668 0.841195 1.170102 0.180253 1.678147
in -0.022695 1.090273 -0.893513 0.122544 -2.130881 -0.286822 -0.339262 2.509123 1.302947 0.037536 1.366065 -0.143729 -1.178673 0.666144 -1.194789 -0.165011 -0.694096 0.291310 0.522121 0.231960 -1.631633 0.197666 -0.449718 -1.026782 -1.629874 0.196889 0.327729 0.158655 0.870273 0.103240 0.796915 -2.305409 1.205216 -0.493993 1.352808 -0.833024 -0.884134 -0.042765 1.397887 2.155400 1.681274 0.778514 -0.814247 0.260646 0.152811 -0.048641 0.251259 0.576627 -0.659153 1.413044
ciudad -1.225723 -1.166419 -0.018773 -0.924933 -1.040845 -0.323436 -0.888466 1.921731 -0.406275 1.088672 0.701875 1.387091 0.839901 -0.629752 0.113796 0.210756 -0.233969 -0.038190 -0.094443 -0.751581 -0.784152 0.711123 0.159192 -0.520111 -0.744369 -0.573092 -0.616850 -0.456147 -0.607851 -1.926168 2.172739 0.473314 1.108322 0.442529 1.298309 -0.427931 0.622400 -0.513415 0.034552 1.119914 -0.203756 1.001624 0.234965 -0.413762 1.461022 -1.059827 0.406031 1.612220 -0.439676 1.382514
sin -1.604666 0.245031 1.024847 -0.397853 -0.222030 -0.911529 0.630308 0.484640 -0.786542 0.107131 0.741186 -0.036301 0.253620 -0.373237 -1.196411 0.051630 1.261260 0.651663 -0.455282 0.266742 -0.538577 0.921025 0.097378 0.393203 -0.927656 0.144206 0.014813 0.123769 0.255213 -0.890158 1.649637 -0.740140 1.372463 -0.586226 0.417720 -0.831590 0.737136 -0.829640 -0.222645 2.232360 0.189309 0.661271 1.125484 0.611830 1.862132 0.127958 -0.020273 -0.075829 -0.736126 1.566131
nombre -1.357057 -0.055423 0.795102 -1.042502 -0.189008 -0.687646 0.413310 2.402069 0.608051 -1.067328 0.574230 1.059954 0.095931 0.107285 -0.855034 0.129488 -0.043760 -0.216555 -0.768946 -0.203080 -0.918864 1.734612 0.891523 1.121740 -0.144032 -0.844660 0.014462 -0.720401 0.134143 -0.680840 0.893276 -0.270919 1.023237 0.548684 -0.056501 -1.142735 0.131673 -0.197104 0.739706 1.788354 0.917580 1.321275 0.859720 -1.591455 0.936837 0.179765 0.841658 1.136658 -1.422339 1.057259
gran -0.467766 0.431692 0.429136 -0.832416 -0.378943 -1.218239 0.668379 0.949381 0.165748 1.066014 0.966227 -0.084256 -0.588789 -0.395874 0.200733 0.139519 -0.232798 0.221832 -0.578145 -0.181461 -0.948398 1.072155 0.330629 -0.453628 -1.325953 -0.191623 -0.433188 0.074916 -0.183624 -1.858773 2.687177 0.152782 0.890352 0.044404 0.469997 0.156309 0.355240 0.144098 -1.016773 1.907596 0.485682 0.897533 0.527505 1.053258 1.252986 -0.590690 0.428361 1.066886 -0.536008 1.680459
había -1.061363 -0.071176 -0.182446 -1.339821 0.193019 -0.941151 -0.037246 0.803854 -0.628070 -0.859661 0.704634 -0.086274 -0.521785 -0.239995 0.177674 -0.187664 0.607827 -0.029813 0.532612 -0.223359 0.248567 1.184855 0.031215 -0.112248 -1.308939 -1.385109 0.215658 0.566892 -0.026447 -1.663676 0.935253 0.871051 1.732534 -0.140005 0.348442 -1.071852 -0.871510 -0.417303 -0.321307 1.391684 0.517535 1.304889 0.538466 0.705825 1.747376 0.044595 0.487500 0.531713 -1.462703 2.906854
cuando -1.802309 0.171200 -0.291386 -1.066956 0.239176 -0.107957 0.133244 0.651073 -0.911986 -0.380283 0.903758 0.505501 0.030309 -0.322439 -0.541117 0.125781 1.285419 1.151557 0.506492 0.421744 -0.216998 1.158873 0.020603 0.568994 -1.162025 -1.020251 -0.838535 -0.414642 0.849296 -1.181889 1.637198 0.410058 0.840285 0.481886 0.911968 -0.614793 0.286555 -0.172754 0.520316 1.962994 0.857375 0.387154 0.464252 0.941560 1.977147 0.653057 -0.064921 0.642409 -0.459695 1.858338
marzo -1.646815 0.157379 0.015259 -0.524348 -0.420662 -0.740699 -1.135468 2.338195 -1.033519 0.454873 0.258329 0.390049 1.003185 -0.607326 -0.267944 -0.047761 0.630174 0.845743 0.841298 0.221980 -1.117904 0.179904 0.436694 -0.534404 -1.978222 0.681156 0.592919 0.636595 0.222054 -0.584870 0.962098 -0.677205 0.434149 1.034619 0.576282 -0.776190 0.226201 0.670395 0.410657 1.675674 1.227883 1.809754 -0.359221 0.502924 0.003093 0.234436 0.979160 0.372114 -1.045504 1.496088
A -0.034814 -0.402396 -0.525170 -0.645001 -0.345725 -1.295527 -0.136867 1.529527 0.510239 0.954099 0.478409 0.102110 -0.329634 0.171534 -0.573078 -0.260717 -0.267945 -0.484876 0.327823 -0.292577 -0.912308 1.103766 0.475486 0.218652 -1.301128 0.313485 0.512947 -0.660193 0.891624 -0.662533 1.732929 -1.216178 1.030552 0.062366 0.759942 0.041391 -0.411361 0.209314 1.627038 1.637528 2.299912 0.848778 0.633183 0.850199 1.234338 0.251956 -0.065986 -0.113615 -0.659751 1.417678
forma -0.404599 0.814829 0.243114 -0.493346 0.458981 -0.809754 0.886500 0.936264 0.021696 0.325398 0.868325 -0.405949 0.541142 -0.469092 -0.011994 -0.088572 0.446126 0.027528 -0.440323 0.118320 -1.215271 0.827343 0.356910 0.924603 -0.627606 -0.168693 -0.501604 -0.761993 -0.556987 -1.009659 1.796015 -0.686228 1.164758 0.999295 0.902814 -0.322710 1.337736 -0.353536 -0.007040 2.453071 1.032448 -0.088282 0.189258 -0.271560 2.216453 0.334941 0.291952 0.463490 -0.519690 0.915594
julio -1.760725 0.295337 0.001728 -0.557842 -0.557456 -0.734377 -1.118108 2.366885 -1.157688 0.661607 0.286257 0.530907 1.000976 -0.679952 -0.251379 -0.000376 0.884178 0.783426 0.783047 0.425941 -0.988997 0.160330 0.442314 -0.663895 -1.982926 0.647642 0.667693 0.358445 0.155716 -0.610378 0.989516 -0.776560 0.405915 0.957510 0.412372 -0.897253 0.382053 0.742907 0.563430 1.749664 1.346694 1.847244 -0.583083 0.281075 0.029328 0.131490 0.865894 0.368792 -0.940483 1.368607
muy -1.047931 1.148709 0.224214 -0.952844 0.160932 -0.872532 1.176631 0.544588 0.308864 1.351527 1.366773 -0.230639 0.503539 -1.761430 0.247188 -0.224670 0.884357 0.621633 -0.543304 0.018070 -0.270138 0.938048 -0.295500 0.976006 0.055280 0.225733 0.113527 0.099794 -0.117112 -0.743390 2.064785 -1.156255 1.251757 0.082124 0.239919 0.193526 0.287688 -0.806016 -0.671068 2.080149 0.477162 0.209969 1.011717 0.183969 1.532537 -0.391982 0.911719 1.488604 -0.732569 2.108245
primera -0.769311 0.327789 0.246247 -0.302178 -0.105753 0.039576 -0.407573 1.456012 -0.699152 0.728295 0.383830 -0.216216 0.056304 -1.301883 -0.748005 0.293659 0.147990 -0.648887 0.040349 0.268154 -0.951724 1.606594 0.433604 0.193676 -1.454531 -0.932635 -0.480039 0.248567 -0.231574 -1.242120 1.661043 0.195350 0.877941 1.403026 0.754530 -0.521748 0.975964 0.323996 -0.088381 1.513857 1.001208 0.985575 -0.129717 0.201751 1.689035 0.376510 -1.019955 -0.070464 -1.409522 1.392826
diciembre -1.532340 0.337163 0.101353 -0.400241 -0.542972 -0.803227 -1.267926 2.255974 -1.008327 0.533784 0.336263 0.528060 1.000629 -0.582644 -0.429641 -0.255119 0.472515 0.778292 0.895735 0.196130 -1.082999 0.139498 0.439391 -0.660766 -1.873634 0.664627 0.816079 0.594046 0.179617 -0.504223 0.928729 -0.606033 0.398949 0.954189 0.415938 -0.861267 0.290883 0.584237 0.259148 1.887278 1.216749 1.872497 -0.474481 0.474578 0.043552 0.205644 1.043532 0.245400 -0.967769 1.465737
enero -1.759106 0.306087 -0.044649 -0.491732 -0.583926 -0.688412 -1.073220 2.245678 -1.080131 0.486879 0.365140 0.629388 1.080689 -0.714564 -0.318798 -0.149583 0.569537 0.738881 0.828724 0.277265 -1.216109 0.114217 0.520616 -0.599104 -2.000214 0.691831 0.592016 0.520675 0.200411 -0.579590 1.129622 -0.609418 0.439864 0.977045 0.532628 -0.787633 0.260501 0.672420 0.633783 1.678619 1.447460 1.893648 -0.353845 0.260707 0.007161 0.270528 0.892420 0.419879 -0.883487 1.392289
junio -1.623495 0.327023 0.040404 -0.544504 -0.451537 -0.694266 -1.343862 2.327941 -1.159521 0.639810 0.405061 0.542365 0.992849 -0.541611 -0.547339 -0.152305 0.699021 0.829858 0.599672 0.160639 -0.985609 0.403978 0.393431 -0.869784 -1.862015 0.704278 0.696296 0.609381 0.172192 -0.470842 0.893698 -0.646643 0.456349 0.885315 0.402240 -0.719635 0.369396 0.667652 0.508693 1.841864 1.358043 1.935790 -0.536356 0.369044 0.121141 0.198015 0.842824 0.396826 -0.951613 1.409263
wikitext -0.981879 -0.492133 2.221943 0.787224 0.582950 -0.193928 -0.769324 3.268166 -0.617325 -1.152917 -0.572510 -0.666941 -0.343124 -0.079037 -0.624701 0.453477 -0.402593 -0.481286 -1.028688 1.761932 -0.415334 0.280332 -0.871857 2.508623 -0.353800 -0.786974 0.553636 -1.296575 -0.426333 -0.223546 0.946234 -1.256741 1.053612 0.261752 0.680077 -1.624830 -1.850240 -0.335252 1.429716 2.561504 -0.676221 0.077436 1.061586 -2.259349 0.540553 -1.339285 -0.106026 0.326458 -2.024033 0.547860
octubre -1.717034 0.357976 0.056511 -0.572297 -0.641268 -0.551038 -1.107918 2.355792 -0.987896 0.501161 0.341325 0.502842 0.874578 -0.516403 -0.406806 -0.100025 0.594170 0.826649 0.827604 0.213629 -1.083790 0.249066 0.341697 -0.698253 -1.936202 0.593605 0.592159 0.648465 0.186976 -0.555853 1.003167 -0.644525 0.389677 1.013630 0.462219 -0.808794 0.312782 0.668434 0.430988 1.685233 1.316471 1.898354 -0.374896 0.425072 0.136003 0.278544 0.837349 0.369854 -0.975048 1.492570
mayo -1.805931 0.280298 0.064187 -0.635853 -0.455526 -0.692675 -1.246025 2.416007 -1.151391 0.531782 0.440449 0.485457 1.013359 -0.580439 -0.494631 -0.110172 0.469682 0.748743 0.725644 0.253754 -1.072233 0.242498 0.329411 -0.602977 -2.063849 0.667477 0.553258 0.613123 0.224110 -0.643366 0.883521 -0.688421 0.593656 0.890963 0.467733 -0.785280 0.285501 0.621933 0.568318 1.707295 1.324653 1.903114 -0.323911 0.593672 0.076573 0.313954 0.756999 0.448145 -1.003557 1.418467
otros -0.381587 -0.234545 0.656839 -1.064498 0.162733 -1.151969 -0.194232 0.677928 0.965929 1.115103 1.316352 0.114013 -0.533342 0.003689 -0.541476 1.030898 1.193967 0.914623 0.049167 -0.248216 -1.224213 0.247428 0.062962 0.970223 -1.093947 -0.120888 0.462742 -0.035708 1.166324 -1.554282 1.583921 -0.442598 1.131750 0.699901 0.452983 -0.117491 0.352201 -0.567530 -0.775784 2.438543 0.268894 0.901983 0.118932 -0.173057 1.051899 -0.359820 0.301631 0.262703 -0.751507 1.061978
Se -0.247132 -0.631178 -0.042611 -0.891580 0.177738 -0.766573 -0.242420 1.242384 -0.115616 0.468191 0.110020 -0.282450 0.337070 -0.046335 -0.370731 0.147954 0.252900 0.931644 0.096878 -1.093935 -0.838032 1.090582 0.242331 0.479149 -0.803301 -0.401985 -0.278941 -1.680641 0.342369 -1.391307 2.244856 -0.262157 0.507301 2.085380 0.634433 -0.144669 -0.043831 0.198267 -0.018234 1.873916 0.808658 1.111097 0.710795 0.479178 1.496636 0.048964 0.379724 0.636171 -0.339462 1.154483
tiene -0.509549 0.625346 0.659321 -0.285002 -0.124456 -0.549847 0.785337 0.791103 -0.162825 0.043613 0.797942 0.554564 0.253345 -0.861795 -0.172040 0.565842 -0.220306 0.425392 -0.603746 -0.166065 -0.703056 0.824091 0.100927 0.296625 -0.341664 0.308470 0.552590 -1.310184 0.092087 -1.470727 2.629668 -0.352875 0.551236 0.794193 1.745437 -0.828753 0.956425 -0.382178 -0.115432 2.095868 0.418734 0.964516 0.643389 -0.144778 1.354663 0.437305 0.932471 0.691221 -0.133164 1.119427
septiembre -1.755935 0.320652 0.197892 -0.603959 -0.611690 -0.627298 -1.115077 2.478316 -1.087630 0.407527 0.403870 0.476411 0.929189 -0.668819 -0.499081 -0.041152 0.648703 0.905909 0.802274 0.185872 -0.957200 0.228508 0.307708 -0.673317 -2.029145 0.671598 0.672715 0.674552 0.086220 -0.490605 0.983981 -0.592807 0.400512 1.050438 0.456832 -0.675545 0.390914 0.699049 0.558240 1.770731 1.254318 1.782865 -0.352250 0.408516 -0.029153 0.181102 0.863745 0.429240 -0.920349 1.477929
Las -0.428121 -0.483481 -0.850646 -1.554858 -0.466188 -1.518197 0.409005 1.566376 -0.317362 1.307452 0.762459 -0.541710 0.189210 -1.076677 -0.405557 -0.397629 0.479044 -0.276771 -0.557126 -1.121680 -0.349128 1.188274 -1.021278 0.102226 -0.693527 0.429135 -0.138550 -0.983972 -0.322496 -1.052473 1.888600 -1.193336 0.387555 1.001591 0.350649 -0.115189 -0.268277 -0.103734 0.198068 3.094094 0.313688 0.058633 1.258602 0.234555 0.217085 0.546135 1.060674 -0.537798 -0.084591 1.038934
fueron -1.297961 -0.544146 -0.197870 -2.490194 0.115636 -1.082082 -0.201237 0.948122 -0.117881 1.472620 1.139177 -0.737105 -0.111955 -0.681091 0.009353 0.508709 1.813229 -0.639164 0.235032 -0.334971 -0.847694 0.349651 -0.432247 -0.135322 -1.521774 -0.774765 -0.199962 1.432020 0.518801 -1.337163 0.657556 0.295708 1.083757 -0.091227 0.284986 -0.494696 -0.539073 -0.815183 -0.097897 2.491054 0.723900 0.299611 0.149642 0.264825 0.688057 0.031247 -0.061077 -0.264158 -1.092687 1.704595
primer -0.790883 0.733098 -0.043842 -0.510301 -0.637193 -0.813300 0.069877 1.264124 -0.968967 -0.302364 -0.132019 0.082960 -0.183557 -0.767024 0.643778 0.931931 -0.117845 0.236545 -0.304399 -0.552254 -0.377228 1.459998 0.763240 0.088324 -1.436631 -0.764702 -0.136360 0.389049 1.255950 -0.819661 1.568290 0.161889 0.536775 0.874524 0.097401 -1.426068 1.504561 0.253140 0.457916 1.754655 1.146559 1.825052 0.230403 0.728074 1.039360 0.008584 -0.235366 0.486942 -1.378501 0.970368
agosto -1.706435 0.342396 -0.086058 -0.613899 -0.583382 -0.620933 -1.127280 2.377932 -1.222329 0.494056 0.363068 0.561678 0.892271 -0.645710 -0.420418 -0.073281 0.643704 0.697915 0.807771 0.179652 -1.179104 0.113059 0.347596 -0.756894 -1.914399 0.589208 0.649946 0.611800 0.246416 -0.491257 1.030723 -0.749973 0.509766 1.005480 0.383421 -0.551318 0.367566 0.548798 0.541782 1.605701 1.318651 1.883799 -0.416694 0.398601 -0.137030 0.195401 0.818812 0.432992 -0.945700 1.408613
abril -1.624094 0.533351 0.179076 -0.615011 -0.400632 -0.639718 -1.082506 2.385457 -1.120366 0.349984 0.230062 0.380469 0.980596 -0.553239 -0.367953 -0.144792 0.538381 0.792252 0.861013 0.101798 -1.007996 0.057801 0.248954 -0.689697 -1.954517 0.763512 0.607941 0.587239 0.192978 -0.600107 1.044124 -0.734710 0.600624 0.955224 0.575549 -0.625737 0.323268 0.535090 0.491866 1.668831 1.354515 1.734062 -0.473808 0.212476 -0.001237 0.262027 0.725413 0.508666 -0.924435 1.549941
febrero -1.656576 0.365846 0.161724 -0.430773 -0.429121 -0.773211 -1.121423 2.280126 -1.032974 0.661644 0.356316 0.597753 0.966356 -0.574562 -0.317524 -0.088927 0.678690 0.751701 0.872941 0.165042 -1.147937 0.229433 0.335996 -0.617355 -1.957243 0.731689 0.699209 0.536005 0.149584 -0.525626 0.998885 -0.686133 0.621562 0.944304 0.431330 -0.660024 0.229626 0.613648 0.458110 1.596926 1.268735 1.923759 -0.328693 0.347002 -0.171584 0.160151 0.938550 0.506506 -0.798033 1.523765
noviembre -1.727625 0.444962 -0.039217 -0.406977 -0.526140 -0.731261 -1.061601 2.241965 -1.089801 0.440243 0.350881 0.513018 0.987457 -0.571500 -0.372740 -0.105165 0.644022 0.826871 0.839789 0.046014 -1.048955 0.246128 0.444842 -0.603654 -1.982377 0.670033 0.555748 0.588130 0.238528 -0.563517 0.893610 -0.595617 0.489489 1.044418 0.502547 -0.775194 0.297112 0.631160 0.429074 1.706676 1.348602 1.830419 -0.434191 0.365749 -0.007494 0.377029 0.923176 0.337788 -0.905702 1.478173
uno -0.427546 0.218564 0.649650 -0.667671 0.053739 -0.506021 0.123229 0.637955 0.258335 0.805760 1.148893 0.297233 -0.512501 -0.607209 0.082985 1.202638 0.783554 0.320269 -0.469596 -0.359745 -0.523752 0.981100 0.156754 0.814903 -0.981511 -0.347644 0.763331 -0.052932 0.985393 -1.452009 1.473172 0.281379 0.586205 0.793740 0.903129 -0.782582 0.756284 -0.476790 -0.291426 1.899640 0.754559 1.271349 0.422456 -0.155815 1.069379 -0.389435 0.014309 1.084150 -0.921273 1.375720
Nacional -0.336354 -0.387530 0.244337 0.370637 -0.799231 -0.403288 -1.617830 1.474276 -0.075591 1.539893 0.591301 -0.395431 0.449979 -0.358090 -0.018478 0.483714 -0.444403 0.061492 0.752196 0.395869 0.444406 -0.183623 0.117437 0.282065 -0.464858 -1.247301 0.320199 -1.534866 0.089756 -2.086015 0.077513 -0.073445 0.769664 1.593387 0.849086 -2.560986 0.630744 1.513815 -0.224040 1.910132 0.304958 1.869480 0.450931 -0.619089 -0.450293 -0.295283 1.622068 -0.427696 -1.700909 1.538001
mismo -1.168062 0.129981 0.589550 -0.872426 -0.099444 -0.948316 0.186727 1.255319 0.094944 -0.026648 0.459166 0.314760 0.269368 -0.249501 0.032602 0.322635 0.316441 0.378679 -0.077847 -0.390713 -0.515636 1.186259 0.293418 0.253108 -0.996245 -0.375274 0.113512 -0.290066 0.695873 -1.027072 1.403916 0.135389 0.778277 0.889646 0.505334 -1.317065 0.782706 -0.198638 0.354586 1.552492 1.168195 1.313805 1.280293 0.455670 1.766227 0.734939 0.150878 0.086915 -0.938693 1.055938
mayor -0.741387 0.156701 -0.034517 -0.322894 -0.028632 -1.388296 0.946878 0.902373 0.078253 0.851877 1.344849 0.384865 -0.310530 -0.716086 0.543647 0.320965 -0.061387 -0.183996 -0.179759 0.471773 -0.556567 1.037891 0.525043 -0.807012 -0.445373 -0.121192 0.287028 -0.223292 0.501214 -1.776879 2.802395 -0.266610 0.486272 0.113945 0.758906 -0.231360 0.585202 -0.185245 -0.923977 2.194983 0.134700 1.020013 0.341859 0.825731 1.480615 -0.623458 0.506068 0.285380 -0.548956 1.015244
han -0.539622 0.983239 0.360955 -1.381220 0.197891 -1.296509 0.016502 0.563153 0.509322 0.220656 1.314822 -0.445432 0.074670 -0.569807 -0.026371 0.732716 0.761727 -0.291751 0.337470 -0.331718 -0.568973 0.591427 -1.634002 0.420520 -0.899311 -0.728398 -0.026440 0.679231 0.592276 -1.904941 1.152001 -0.148952 1.696841 0.921940 0.728947 -0.067717 -1.250728 -0.737603 -0.238050 2.251023 0.035534 1.285074 0.540754 0.108226 1.066459 -0.660289 1.026938 0.109370 -0.932143 1.918218
tres 0.095605 -0.198306 0.711184 -1.307169 0.132550 -0.349140 0.227461 0.798278 -1.131644 1.345164 0.793089 -0.485708 -0.682841 -1.234273 -0.001056 0.588293 0.537444 -0.144806 -0.743959 -0.376913 -0.891370 0.715279 -0.307511 0.273032 -1.583577 -0.483161 0.382818 -0.689986 0.635400 -1.212641 1.337343 0.126034 0.352336 0.655939 1.061945 -0.835523 0.467266 -0.846858 -0.503992 2.531514 1.259616 1.488839 0.495192 -0.001159 0.903261 0.761103 -0.004621 -0.405752 -0.890926 0.888828
así -0.943346 0.436549 0.379252 -0.781939 -0.218768 -0.755111 -0.169883 0.503394 0.663294 0.988231 0.926378 0.720923 0.222512 -0.085614 0.356814 0.728299 1.207031 -0.117013 -0.725891 -0.051715 -0.344740 1.362503 0.231641 0.965434 -1.175641 -0.212505 -0.283380 0.095616 0.440107 -1.766323 1.290594 -0.373280 1.109876 -0.619423 0.886931 -0.839736 1.269962 -0.565654 -0.838486 1.945182 0.301234 0.551971 -0.125894 0.558774 1.104474 0.089097 0.212470 0.467255 -0.306554 1.151165
Estados -1.650454 -1.020197 -0.705670 0.901742 -0.935049 0.158000 -0.627509 2.114700 0.216289 -0.155001 0.541065 -0.885265 -0.092701 -1.700607 -0.648236 1.051648 0.396006 1.046400 0.374207 -0.602022 0.189488 0.468823 -0.925322 -0.318263 -0.980975 -0.615870 1.315329 0.855722 0.756530 -2.977428 1.062317 -0.587555 0.769846 0.590982 0.479206 -2.181654 0.079861 -0.158488 -0.471386 1.499051 1.277712 0.223585 -0.295581 -0.527084 1.304121 -0.824600 -0.502597 0.266433 -0.814974 0.540572
después -1.460359 -0.285968 -0.269864 -0.563548 -0.055391 -0.169355 -0.449535 1.054024 -1.388672 0.340889 0.624139 0.318357 0.117806 -0.190659 -0.261237 -0.026823 1.143380 0.263746 -0.086928 0.134629 -0.495031 1.213593 0.156637 0.425578 -1.772306 -0.916894 -0.519854 0.343683 0.842862 -1.068441 1.078104 0.020799 0.850150 0.067848 0.320596 -0.933973 0.017128 -0.133472 0.011815 1.546399 0.858719 0.940169 0.400722 0.795652 1.723870 -0.039245 -0.080531 0.443479 -0.954759 1.842913
vez -1.005056 0.265768 0.189114 -0.652738 0.251173 -0.402243 -0.073305 0.672784 -0.362600 0.411008 0.611919 -0.009959 0.128338 -0.725765 -0.447305 0.337066 0.849137 -0.028458 0.092818 0.024682 -0.387815 1.123004 0.036195 0.518281 -1.095849 -0.489128 -0.179009 0.139877 0.302724 -0.974779 1.655593 0.046458 1.219578 0.635456 0.578889 -0.903305 0.487612 -0.301986 0.175554 1.890222 0.904378 0.856697 0.472676 0.514318 2.023102 0.225377 -0.217688 0.206146 -0.913077 1.459805
lugar -1.165411 0.058982 -0.062839 -0.474224 -0.113461 -0.503733 0.663947 1.865401 -0.382212 0.723299 0.637101 1.032599 0.765045 0.577501 -0.375716 0.403281 0.303113 0.422088 -0.538548 -0.495146 -0.960838 1.630877 -0.406717 -0.244247 -0.753294 -1.006400 -0.528996 -0.405198 0.468334 -1.386961 1.044627 0.070554 0.717733 0.608778 0.029177 -0.351266 1.423094 -0.653795 0.470223 2.034072 0.484664 1.143117 0.603490 0.350167 1.257220 -0.409249 0.645398 0.911361 -0.483810 1.269819
todo -0.590069 0.296943 -0.144366 -0.390619 -0.484332 -0.897645 0.454219 0.653876 0.644412 0.561206 0.966524 0.418634 0.541270 -0.486942 0.013989 0.942069 0.819435 0.666406 -0.483853 -0.606880 -0.103270 0.889140 0.192619 0.182863 -0.780841 -0.038109 -0.183676 -0.221553 0.124070 -1.839372 1.518275 -0.390972 1.058088 0.264898 0.695857 -0.735144 0.570873 -0.454919 0.062275 1.690908 0.237349 0.852430 1.084320 0.756530 1.975889 0.135691 0.446812 0.791326 -0.326651 1.549379
contra -0.309899 -0.898784 -0.479740 -0.418101 -0.048977 -1.258017 -0.810505 0.009472 -1.315712 0.533724 0.333442 0.117500 -0.945714 0.117649 -0.679864 0.346847 1.545844 0.406820 -0.486965 0.753679 0.628125 0.067652 -0.101180 -0.630413 -2.214426 0.313049 0.048898 0.987180 -0.313164 -1.907648 1.589060 0.012831 2.029471 0.936611 0.131992 -1.229935 0.923753 0.203540 0.685056 2.272351 0.567892 -0.284769 0.412736 0.572887 1.223374 0.535597 -0.641176 0.840386 -0.988275 1.542771
solo -0.659578 0.477284 0.372675 -0.461076 0.317471 -0.458007 0.734246 0.374697 -0.366647 0.184925 0.666226 0.283469 -0.008104 -0.843440 -0.440120 0.672259 0.742174 0.456191 -0.156589 0.086483 -0.524232 1.077556 0.066218 0.418433 -0.720600 -0.582824 0.572194 -0.476668 0.472938 -1.348843 1.608499 -0.098634 0.844062 -0.114327 1.228677 -0.889460 0.385074 -1.113290 0.137056 2.101125 0.613143 1.109110 0.720862 0.449676 1.891987 0.341808 0.271320 -0.232812 -0.719182 1.470109
cual -0.624611 0.469917 0.111799 -0.680417 0.007243 -0.556368 -0.040495 0.763301 0.018981 -0.075639 0.860435 0.482982 0.346998 0.010228 0.191057 0.348162 0.560480 0.243025 -0.077998 0.192601 -0.288739 1.326376 0.283131 0.896762 -1.133851 -0.560878 -0.140505 -0.533128 0.140998 -1.594438 1.663941 0.517466 1.260011 0.228778 0.925537 -1.222970 0.769119 -0.239649 -0.169533 1.771785 0.768138 0.717894 0.209439 0.385697 1.554844 0.277093 0.410738 0.571112 -0.431197 1.436735
si -0.692613 0.918365 0.627816 -0.145565 0.564199 -0.882378 0.899263 -0.046243 0.217252 -0.646481 0.982831 0.638366 0.195577 0.298378 -1.228797 0.433828 1.221318 0.760208 0.084054 0.178084 0.507675 1.362131 -0.163434 0.495123 -0.374518 -0.336945 0.613784 -0.839143 0.186207 -1.038123 1.227088 -0.599708 0.921890 0.126662 1.394375 -0.744378 0.950168 -0.970506 0.593806 2.305503 0.223346 0.714612 1.130773 0.629007 2.402042 0.920576 0.072649 0.231025 -0.053589 1.780798
cada -0.374093 0.074554 0.225450 -0.228462 0.404046 -0.342912 1.101562 0.779091 -0.364452 0.900230 0.705774 0.089439 0.525617 -0.810531 -0.006277 1.016899 0.435599 -0.021451 -0.427575 0.081265 -0.742394 0.386303 0.274886 0.470011 -0.683129 -0.103411 0.508641 -1.012485 0.561057 -1.496621 2.001995 0.229990 0.814908 1.257700 1.373920 -1.111185 1.116998 -1.199850 0.438972 1.682652 1.052394 1.084710 1.060089 0.711440 1.801886 0.878917 0.515604 -0.756863 -0.536027 0.711623
libro 0.892936 1.845499 -0.744074 -0.273918 -0.492795 -1.935686 0.516077 2.208088 0.516211 0.346190 1.370258 1.005523 -1.159666 -0.729336 -0.510797 -0.208593 0.631551 0.536205 0.449246 0.093616 -0.192408 0.780246 1.546171 0.541570 -1.975074 0.877950 -0.609132 0.126599 -0.490204 -1.902327 -0.495944 -1.092196 -0.312926 0.718616 -0.021077 -0.578334 -0.000296 0.393023 0.884487 0.662219 1.139643 1.319066 0.838002 -1.717786 0.760433 0.634141 -0.059197 -0.318820 -1.359006 1.499721
sido -1.379800 0.883904 0.450778 -1.425744 0.484467 -1.012601 -0.148092 0.834387 0.386942 0.422305 0.926627 -0.892617 0.228221 -0.678094 -0.118677 -0.065465 1.145622 -1.216181 0.221531 -0.069233 -0.426656 0.883883 -0.529479 0.211616 -0.733549 -0.766230 0.200617 1.424098 0.382417 -1.324768 1.044671 -0.150492 1.818669 0.825085 0.691243 -0.929239 -0.667890 -0.783856 -0.064292 1.980203 0.065839 0.689808 0.533785 0.072672 1.397588 -0.673411 0.681086 0.555470 -1.501153 2.403222
The 0.426163 0.476810 -0.339605 0.228320 -1.071518 -0.602776 -0.193292 2.706942 1.072361 -0.212612 0.230347 0.448371 -0.719080 -0.816493 -1.126097 0.209281 -0.259688 -0.252418 -0.202837 -1.304292 -2.045179 0.735277 0.882170 0.486675 -1.825297 1.035309 1.367737 0.788162 1.070891 0.070401 0.800562 -0.917368 1.220778 0.315152 0.341556 -0.741570 -1.196031 0.649317 1.406079 1.470762 2.483129 0.150103 -0.129200 0.055165 0.197468 0.407875 -0.813508 0.188742 -1.083259 1.431126
todos -0.534058 -0.300550 0.663417 -0.373163 -0.108035 -0.645785 0.421493 0.264393 0.297240 0.825893 1.222394 0.056000 0.124517 -0.024231 -0.345555 1.373755 1.313909 0.433131 0.212905 -0.268738 -0.603843 0.318081 0.203208 0.653422 -0.984986 -0.034606 1.235896 -0.011459 0.770466 -1.925910 1.284565 -0.032084 0.872165 0.496929 0.919926 -0.595999 0.879941 -0.987983 0.073807 1.878808 0.727528 1.073970 0.758107 0.212107 1.542694 0.369267 -0.232393 0.168590 -0.617157 1.330002
aunque -1.736553 0.838919 0.327456 -1.232444 0.034602 -0.599110 0.140526 0.089483 0.639197 0.225063 1.083371 0.673661 0.439430 -0.567293 0.064500 0.244698 1.209565 0.210080 -0.504710 0.463997 -0.404075 1.778429 -0.196116 0.732019 -0.839745 -0.451391 -0.111776 0.205966 0.444525 -1.418196 1.357535 -0.383864 0.765632 -0.531495 0.858542 -0.545254 0.575642 -1.086124 -0.247899 1.805480 0.634196 0.782335 -0.498293 0.209458 1.488020 0.363010 0.565469 0.878736 -0.669621 1.491384
pueden -0.665727 0.107682 0.147954 -0.563220 -0.158613 -1.231145 1.074783 0.278152 -0.123354 0.361493 1.038801 -0.072618 0.121319 -0.150446 -0.850508 0.861868 1.706828 -0.092672 -0.002963 -0.250142 -1.029247 0.604243 -0.907374 1.659840 -0.510762 0.033201 -0.119551 -1.147439 0.987954 -0.654419 2.028080 -1.785221 0.822015 1.170557 0.980598 -0.040532 0.443755 -1.260784 0.358007 2.667861 0.263024 -0.218541 1.086688 0.579209 1.400413 -0.473834 0.424630 -0.933980 -0.008395 0.446121
hacia -0.634062 -1.347942 -0.728377 -0.909627 0.488180 -1.076682 0.016530 1.587920 -0.470476 0.026354 1.329842 0.619715 0.072931 -0.837814 0.762796 0.387213 -0.261289 0.456098 0.131110 0.071372 -0.923523 -0.419378 -0.551952 0.327333 -1.679932 -0.743538 -1.432109 0.087318 -0.406788 -1.420521 1.224519 -0.358601 0.925337 -0.300195 0.589998 -0.486448 0.647291 0.144357 0.201313 1.866471 0.700632 -0.322524 1.405917 0.416134 2.894563 -0.004244 0.085358 0.731952 0.629188 1.107867
España -0.921115 -0.185459 0.374448 0.083864 -0.156210 -0.595692 -0.180657 1.296806 -0.576607 1.248440 0.577743 0.231710 0.604402 -0.691771 -0.482299 0.137716 0.495540 -0.158960 1.102184 0.116730 0.640698 0.586133 0.132810 -0.464339 -1.657374 -0.334339 -0.674448 -0.022133 -0.504618 -2.246540 0.227741 0.003403 1.304459 -0.409411 0.518751 -0.792832 0.355458 0.992094 1.328681 2.295064 -0.622697 2.262952 0.327163 -0.839568 1.251850 -0.079884 -1.085368 -0.165374 -1.070131 0.307628
otras -0.156578 0.019482 -0.253436 -1.426963 -0.420104 -0.977563 -0.163436 1.007553 0.682094 0.847791 0.449553 0.257266 -0.068623 -0.769226 -0.371890 0.081824 0.687237 0.100925 -0.509615 -0.477551 -0.355918 1.289132 -0.968191 0.473384 -1.096827 0.395745 -0.409761 -0.485898 0.092935 -1.657886 1.630973 -0.749370 1.299889 0.674465 1.003265 -0.170848 0.088555 -0.889091 -0.349011 2.356536 -0.294112 0.796939 0.640211 0.438135 0.993344 0.736299 1.079682 -0.636523 -0.424695 0.638842
Por -0.466433 -0.301039 0.235247 -0.698197 0.370578 -1.599858 0.152206 0.797445 0.377508 0.540434 0.367077 -0.521770 0.371070 0.022550 -0.485788 -0.246569 0.123093 0.421326 0.258996 -0.440855 -0.292638 1.181481 -0.060542 0.415232 -0.340159 0.271566 0.666262 -0.586952 0.431070 -1.196010 2.017400 -0.798817 0.584943 1.113595 0.552913 -0.212234 0.457191 -0.030467 0.285535 1.945807 0.713138 1.002040 1.266331 0.174375 1.863196 0.242238 -0.058986 0.160299 -0.335406 1.243340
bajo -1.441405 -0.045645 -0.041991 -1.283247 -0.712737 -0.579533 -0.131653 1.335166 0.038917 0.217518 0.747000 -0.426906 0.518658 -0.404564 0.406866 0.398628 0.930025 0.283840 -0.234615 -0.264001 -0.339393 0.362169 0.717910 -0.768865 -0.392589 -0.842751 -0.459750 0.123988 0.285737 -1.171461 0.916895 0.065185 1.024983 0.214373 0.600504 -1.521134 0.682991 -0.342494 -0.265216 2.399933 0.751774 -0.349412 0.200490 0.200259 2.178659 0.123632 -0.107813 0.010230 -1.109911 0.898705
población -0.856891 -1.060400 -1.008802 -0.350820 -0.175257 -1.127740 0.938038 0.915191 0.674656 0.740178 1.032934 0.974467 0.953858 -1.105088 -0.565384 -0.548827 -0.336242 0.447213 0.549428 1.215890 -1.763876 0.266180 0.084660 -1.260962 0.015889 -0.686059 0.546957 -0.245586 -0.381160 -1.793277 1.904112 0.814928 1.649875 0.632202 1.599121 -0.768015 -0.203570 -0.376244 0.211195 1.174542 -0.121494 1.597726 -0.099588 -0.702751 1.518020 -0.245240 1.365096 0.320755 -0.349798 0.534083
tras -1.676703 -0.599201 -0.027985 -0.069016 0.223452 -0.560006 -0.479802 0.914605 -1.759737 0.453330 0.515573 0.437026 0.368432 -0.113324 -0.260509 -0.050486 1.296304 -0.108813 -0.280494 0.714655 -0.273164 0.962111 -0.101652 -0.081062 -2.085158 -0.780006 -0.858189 0.459602 0.432935 -1.077291 1.143753 0.339242 1.408610 -0.172213 0.002843 -1.233214 0.179807 -0.066272 0.377712 1.682264 0.522162 1.212812 0.230759 0.925891 1.576811 -0.357092 -0.478341 0.189749 -0.954567 1.200878
título -1.106530 0.339808 0.601163 0.187138 -0.241485 -0.839111 0.794011 2.226749 0.573588 0.283539 0.796439 0.815736 -0.021325 0.193324 -1.585792 0.249505 -0.290594 -1.159841 -0.247805 -0.097553 -0.718997 1.342908 1.690693 0.235824 -0.732628 -0.703725 0.070362 -0.349048 0.784934 -0.982462 0.012007 -0.463335 0.339292 -0.491230 -1.065440 -1.111545 0.615880 0.322404 0.554160 2.227860 1.439059 1.825644 -0.091468 -0.199186 0.160690 0.128038 0.027193 0.052991 -1.822071 0.703406
número -0.223414 0.495913 -0.014943 -0.256659 1.099188 -1.176799 0.832997 0.620775 0.015322 0.672871 0.769546 0.309812 0.260141 -0.548265 -0.696628 0.718486 0.258878 0.094015 -1.079797 -0.153390 -1.257861 1.116823 0.328720 -0.256862 -0.601918 -0.604169 0.851937 -0.560658 1.320071 -1.476335 1.858446 -0.057288 0.302991 0.293412 1.030033 -0.908434 0.411997 -0.906292 0.766868 2.379381 0.191750 1.908304 -0.346155 0.480176 0.780021 0.240980 0.202342 -0.611172 -0.344126 1.122094
mientras -1.037632 0.258435 -0.340683 -1.115764 0.001587 -0.222580 0.434682 0.533223 -0.213309 0.230827 1.272404 0.981314 -0.270328 -0.758044 -0.063865 0.608676 1.115945 0.411123 -0.194037 0.452450 -0.388516 0.879765 0.076091 0.388828 -1.075881 -0.542234 0.010575 -0.061958 0.406108 -1.188017 1.351255 0.100942 0.555620 -0.522838 1.325010 -1.004141 0.809678 -0.458415 -0.508950 1.825449 0.944201 0.309030 -0.115505 0.699167 1.401993 0.666518 0.485940 0.734475 -0.112522 1.082206
algunos -0.592081 -0.137265 0.735415 -1.315770 0.085962 -1.174486 0.034813 0.046675 0.681866 0.800868 1.065246 0.114470 -0.080687 0.116820 -0.241682 1.135076 1.270488 0.898260 -0.082214 0.021303 -1.406895 0.753847 -0.327956 1.025902 -1.134009 -0.499475 0.166073 0.073544 0.791165 -1.488434 1.314910 -0.362528 0.830050 0.682037 0.484249 0.267217 0.135901 -0.860340 -0.422252 2.021221 0.521504 0.851138 0.314031 -0.216246 1.090258 -0.183778 0.264657 0.394883 -0.655783 1.325507
ese -1.146936 0.048712 -0.052896 -0.484978 -0.545064 -0.861872 0.264774 1.023359 -0.155330 0.370216 0.300260 0.031283 0.554209 -0.168237 -0.038267 0.442013 0.389982 0.582243 0.169846 -0.203784 -0.181879 1.477129 -0.056038 -0.010754 -0.921418 -0.536391 0.141145 0.162152 0.569106 -1.058456 1.312558 0.265027 0.839281 0.727106 0.091087 -1.015305 0.666605 -0.149183 0.300003 1.182856 1.280769 1.755870 1.057136 0.793836 1.916550 0.286408 -0.030941 0.092386 -0.803583 1.470177
to 0.037150 0.915648 -0.471004 0.667056 -1.543989 0.181620 -0.877062 2.248891 0.476753 -0.997628 1.037336 1.141754 -0.981895 0.021175 -1.004832 -0.378728 -0.732663 0.574891 0.718011 0.192493 -1.897328 0.365711 -0.226882 -0.388834 -1.900529 1.677622 1.259493 -0.190557 1.395890 0.097023 0.922753 -1.719012 1.356929 -0.379961 0.658623 -0.064865 -0.100129 -0.127933 0.847435 1.294572 1.480266 -0.176952 -0.211318 0.912634 0.853753 -0.136485 -0.197558 -0.503001 -1.775656 1.589691
gobierno -1.701449 -1.876372 -0.687192 -0.647301 -1.203149 -1.879266 0.263473 0.743273 -0.002428 -0.333240 0.300025 -0.800948 0.594804 -0.110422 1.046524 -0.067331 0.480116 0.836721 0.297408 -0.217454 0.543413 0.412503 0.541637 0.374441 -1.331954 0.014516 0.222635 0.209127 -0.063249 -1.301929 1.284245 0.454188 1.060217 0.352984 0.121931 -2.039051 0.846286 0.153351 0.431903 1.737200 0.298781 0.842768 -0.721712 0.550724 1.410279 0.337767 0.278921 0.255228 -1.418179 1.432962
según -1.512529 0.650383 0.833913 -0.731710 0.429459 -1.320549 -0.174227 0.830703 0.920269 0.217689 0.432171 0.654342 0.453504 -1.198548 0.076397 0.368673 0.767138 -0.055192 0.235469 1.465037 -0.590042 0.513344 0.191278 0.238192 -0.681598 -0.509040 0.196178 -0.437804 0.484162 -2.004766 1.053737 -0.153551 0.909773 1.007842 0.992388 -1.424010 0.125969 -0.936043 0.056581 1.304062 0.143725 1.119074 0.656720 -0.852719 0.887006 0.988105 0.342488 0.066767 -0.612939 0.630672
Premio -2.104321 0.392897 1.074639 1.547987 0.772879 1.241156 -0.599215 1.957084 -0.522373 -0.113720 1.980561 -0.458120 -1.070466 -0.434705 -0.220972 0.424245 -1.087493 -0.155822 -0.085701 -0.805461 0.817922 0.969687 -0.826746 -0.420117 -1.169232 -0.952659 -0.086403 0.278960 0.591413 -0.874024 0.661506 -1.312438 0.415808 -0.396970 -0.602773 -1.121070 -0.307568 2.790296 -0.911425 1.478755 -0.304056 2.697059 -0.117125 0.330813 0.610582 -0.843418 -0.855932 -0.513951 0.073602 0.530002
C 0.521877 0.180469 0.272800 -0.441252 -0.175744 -0.062583 0.176952 1.752166 0.369073 1.130120 2.299307 0.488825 1.359906 -0.646428 -0.560616 0.337094 -0.505748 0.468974 -0.415256 0.268894 1.488441 1.666467 0.198006 0.035175 1.876728 0.139852 0.425728 -1.801805 0.865664 2.207349 0.299167 -0.741152 0.298774 0.536919 -0.298325 0.713474 -0.309971 -0.246689 1.735090 1.541755 1.414611 -0.179020 -1.306394 -0.255890 0.794272 -0.201008 0.255985 -0.030123 -0.388549 0.463684
quien -1.065344 -0.315170 0.143326 -1.266172 0.165470 -0.584226 -0.050474 1.339279 0.215917 -0.734084 0.250471 0.698422 -1.439303 -0.241789 -0.005219 -0.638942 1.000495 0.090609 0.584777 -0.090285 0.797365 1.734983 0.784549 0.893357 -1.280804 -0.776394 0.177029 -0.360445 0.496498 -0.905180 0.861416 0.688853 1.213340 0.138980 0.565674 -1.720112 0.736065 -0.041240 -0.934033 0.814542 0.285619 1.029177 0.442701 0.869761 1.023027 0.374680 -0.570859 1.774407 -1.178947 1.598492
sistema -0.069673 0.775538 0.175922 -0.779390 -0.179572 -1.968463 0.572768 0.817556 -0.651268 -0.995468 0.340992 -0.302388 0.913631 -0.755028 1.076177 0.663811 -0.008419 0.709728 -0.552689 -0.069204 -0.032260 0.388031 0.472006 1.189527 -0.325900 0.196278 0.035063 -0.217005 0.898932 -1.522520 2.000462 -0.913702 0.882593 0.307253 0.977968 -0.783251 0.665112 -0.377901 0.405909 2.085777 0.842348 0.191865 -0.323566 -0.266218 1.774157 -0.264056 0.730139 -1.127272 -0.747465 0.727723
estos -0.656201 -0.184134 0.623836 -1.040084 0.248116 -1.362612 0.344019 -0.009720 0.513782 0.877963 1.184046 -0.039260 0.125482 0.560238 -0.114054 0.945222 1.231177 0.847930 0.366433 -0.001058 -1.276883 0.518710 -0.297151 0.840735 -0.881748 -0.426457 0.331169 -0.459309 1.047947 -1.731856 1.485016 -0.423429 0.975756 0.894834 0.395746 0.222578 0.398271 -1.007712 -0.171609 2.078319 1.042942 0.873127 0.481546 -0.126584 1.314483 -0.387562 -0.126647 -0.056445 -0.264960 1.171906
siendo -1.522495 0.680773 0.191072 -1.268865 0.438387 -0.328612 -0.343373 0.538699 0.085635 1.237882 0.849257 0.199603 0.701657 -1.073161 0.584335 0.252350 1.091325 -0.866039 -0.124777 0.545327 -0.219609 1.138332 -0.082591 0.176865 -0.709226 -0.542216 -0.117644 0.822219 0.758175 -1.036410 1.404678 0.119902 1.068979 -0.242222 0.993916 -1.139710 0.850113 -0.802374 -0.139763 1.685982 0.456742 0.889661 -0.337056 0.377139 1.176420 -0.359581 0.554400 0.726784 -0.844396 1.328857
De -0.199310 -0.393980 -0.017236 -0.875932 0.122536 -1.306198 -0.121028 1.280918 0.368181 0.800959 0.650686 -0.566872 -0.205811 -0.421121 -0.630732 -0.400288 -0.157746 0.222409 0.653752 -0.651111 -0.446224 0.864144 0.439917 0.162972 -0.460520 -0.071775 0.233308 -0.551311 0.329742 -0.713618 1.174043 -0.707279 0.784429 0.804501 0.448175 -0.265371 0.198463 0.368839 0.189960 1.836126 0.798916 1.509178 1.200902 0.174030 1.151245 0.394580 -0.415536 0.729207 -0.445160 1.519070
Su -0.909652 -0.195356 0.313593 -0.631576 0.448896 -1.181619 0.475760 1.716240 -0.024101 0.750564 0.464219 -0.497788 0.282605 -0.569234 0.348459 -0.999657 -0.401523 -0.113170 -0.693149 -0.591446 -1.001982 1.145186 0.970143 0.052689 -0.522567 0.097594 0.002839 -0.015056 0.680895 -1.287841 1.859633 -0.422768 0.718908 0.797375 0.186935 -0.129145 0.524884 0.057165 -0.777574 0.949609 1.027205 1.169829 0.480893 0.273814 1.581978 -0.468909 0.529095 1.369747 -0.829872 1.427753
nuevo -0.846499 0.339636 0.161510 -0.710222 -0.474129 -1.090404 0.018159 1.156073 -0.646892 -0.044810 0.118720 0.184390 0.476931 -0.108981 0.848336 0.525964 0.262020 0.274826 -0.452110 -1.003400 0.022135 0.981829 0.985973 0.634838 -1.406627 0.038105 -0.258075 0.060570 0.603164 -0.797765 1.319861 0.386021 1.282378 0.328334 -0.224933 -1.246657 0.898152 0.287541 0.517175 1.398816 1.294993 1.500081 0.362644 0.771848 1.441917 0.156823 0.285497 0.165185 -1.240584 1.361639
tanto -0.738505 0.295283 0.420572 -0.761032 -0.155923 -1.089300 0.575291 0.342161 0.607464 0.383123 0.993784 0.131391 0.148616 -0.219145 -0.030478 0.654335 0.727880 0.168448 -0.233012 0.237688 -0.186759 0.942571 -0.338440 0.905695 -0.686445 0.000030 -0.212493 0.116612 0.345910 -1.925832 1.598110 -0.210628 1.415434 -0.038452 1.073324 -0.175692 0.734171 -0.480538 -0.358241 2.020095 -0.047166 0.575955 0.201685 0.631529 1.382243 -0.005003 0.201532 0.306590 -0.652788 1.162831
hay -0.135861 0.468409 0.816569 -0.794536 -0.436609 -0.769491 0.524719 -0.053267 0.321206 0.606001 0.980256 0.407099 0.349849 -0.391089 -0.707965 0.792361 0.228935 0.749274 -0.152962 -0.226534 -0.978081 1.477306 -0.794337 0.093598 -0.302347 -0.300937 0.529536 -0.722746 -0.302746 -1.356262 1.968819 -0.509234 0.365676 0.729445 1.365195 -0.293193 0.565232 -1.009168 0.118302 2.073581 -0.126152 0.970759 1.371933 0.118453 1.240632 0.465548 0.315776 0.053912 0.271971 1.459971
tiempo -0.722329 0.497384 -0.076384 -0.248298 0.023284 -0.966990 0.984518 1.166755 -0.624326 0.212394 0.914567 0.433227 0.511515 -0.389383 -0.074758 0.258898 0.587943 0.971351 -0.163004 -0.110090 0.004891 0.925724 0.384338 0.580939 -0.531352 -0.535566 -0.501288 -0.386868 0.904215 -1.414929 1.008791 -0.490243 0.806165 -0.038753 0.375644 -0.270980 0.452089 -0.571409 0.217207 1.400111 0.801467 0.951566 1.103383 0.690227 2.148939 -0.134942 -0.110887 -0.029558 -0.805232 1.538601
junto -0.668791 -0.098147 0.413504 -1.394315 -0.241321 0.172447 -0.658403 1.353010 0.089682 0.987268 0.680288 0.410147 -0.541111 -0.608346 0.088565 0.396687 0.729470 -0.261151 -0.172283 -0.349200 -0.466874 0.942953 0.205275 0.569997 -1.243553 -0.740276 -0.466154 0.150725 0.337853 -0.555337 1.038855 0.657686 1.306222 0.245926 0.891221 -1.345789 0.704548 0.366955 -0.611831 1.666866 0.952741 0.551683 0.128858 0.477525 1.093720 -0.009160 0.179871 0.910846 -0.829444 0.940121
general -1.463323 -0.862485 -0.101105 -1.110458 -0.436261 -2.055239 0.350053 1.011228 0.392037 0.472969 -0.192721 -0.387230 -0.507527 -0.586867 0.691175 -0.189069 0.546361 0.163053 0.707699 0.831816 0.591255 0.472540 0.479110 0.244843 -1.027947 -0.765807 0.245941 -0.657782 0.156552 -1.126566 1.021920 -1.123420 0.852312 0.373959 0.103369 -1.765210 1.521359 0.190405 0.444348 2.007934 0.369065 -0.026629 -0.089491 0.002172 0.723413 0.412326 -0.426921 0.858668 -1.001817 1.141757
Sin -0.962629 -0.523199 -0.084393 -0.882934 0.145065 -1.661850 0.287106 0.564744 -0.166800 0.305267 0.289079 -0.421873 0.345960 -0.082663 -0.622119 -0.282431 0.362994 0.484613 0.015649 -0.299731 -0.377949 1.532727 -0.099810 0.032503 -0.617125 0.166569 0.625420 0.077130 0.455946 -1.093116 1.766896 -0.753583 0.770122 0.518494 0.134523 0.051086 -0.249540 0.133660 0.296932 1.714620 0.958995 1.081669 0.650848 0.285560 1.630259 -0.230227 -0.183328 0.237389 -0.590518 1.455605
historia -0.243759 0.869773 0.182074 0.448123 -0.634541 -0.939649 0.672348 1.051657 0.235323 1.117840 1.279075 0.232394 0.014608 -1.316051 -0.835220 0.263980 0.007376 -0.377769 -0.368051 0.133228 -0.424216 1.006419 0.334973 0.366965 -1.541537 -0.072429 -0.629769 0.615218 -0.082973 -2.040368 1.000921 -0.228863 1.191047 0.817970 0.435050 -0.133141 0.595789 0.186472 0.321028 1.010768 0.480699 1.452656 0.737759 -0.515450 0.732236 0.333608 -0.889108 0.999777 -1.072630 1.820497
antes -1.229459 -0.075973 -0.133963 -0.727301 -0.112188 -0.149698 0.227220 1.066241 -1.162587 -0.053122 0.636081 0.310853 0.389626 -0.343194 -0.254336 0.324021 1.159676 0.400659 -0.158295 -0.003959 -0.545908 1.337644 -0.120192 0.471593 -1.225100 -1.211848 -0.354316 0.155509 0.598348 -1.113237 0.864726 -0.447526 0.760829 0.201351 0.395674 -0.739662 0.065634 -0.581737 0.350453 1.548784 0.533135 0.785003 1.114440 0.460942 1.645895 0.199323 0.063225 0.189492 -0.843436 1.750295
vida -0.626605 0.239207 0.190356 0.095326 -0.574395 -0.831581 1.369619 1.773823 0.169474 1.126348 1.202971 0.050410 -0.084901 -0.466055 -0.678797 -0.673213 0.422010 0.291484 -0.080882 0.306386 -0.620964 0.627708 0.579157 0.352324 -0.832319 0.119778 -0.870213 0.557296 0.602889 -1.866723 0.913123 -0.400562 1.282495 0.524625 1.469887 -0.085688 0.488354 -0.464705 -0.459188 0.606025 0.048934 0.799827 1.542611 0.579204 1.275318 0.233540 -0.118277 0.723904 -0.732298 1.968034
debido -1.410203 0.325045 -0.044273 -0.704437 -0.073974 -1.051228 0.479366 0.511186 -0.359707 0.366039 1.043069 0.293951 0.826837 -0.297422 0.116278 -0.006449 0.909599 0.386730 -0.269994 1.117586 -0.469813 0.985622 -0.672082 0.385658 -1.077764 -0.372533 -0.541494 0.239572 0.581255 -1.299034 1.931163 -0.207808 1.261195 -0.136399 0.569987 -0.346071 -0.234558 -0.373100 -0.326545 1.730296 0.406711 0.395689 -0.216432 0.912177 1.544978 -0.794569 0.759447 0.581764 -0.242368 1.247959
mejor -0.804799 0.741097 1.011065 -0.045772 0.567350 0.146108 0.541950 1.994108 0.945314 1.111557 0.284575 -0.361989 0.162354 -1.287857 -0.544978 1.145016 -0.046668 -1.487818 1.013041 0.601096 0.033030 0.391179 0.009040 1.764973 -1.281405 -0.213350 1.081030 0.992052 0.555815 -1.399425 1.917644 -1.187259 1.470859 -0.307302 -0.063935 -0.471939 0.756207 0.681686 -0.430045 0.343480 0.364729 1.480043 1.677757 1.612807 1.568907 0.113770 0.008620 0.104325 -0.397034 0.193732
están -0.387926 0.418981 0.568288 -1.718193 -0.237287 -0.967334 0.489737 0.350056 0.289838 1.090521 1.563087 -0.352292 0.465011 -0.859826 -0.291601 0.975215 1.214813 -0.111263 0.024398 -0.640887 -0.600457 0.202088 -1.022674 0.323821 -0.277037 0.016498 0.168339 0.138575 0.164160 -1.092477 1.021148 -0.550141 0.785440 0.452853 2.179332 -0.896412 0.075835 -1.056591 -0.041244 2.610657 0.923435 -0.138710 1.077815 -0.249709 1.399777 0.077202 0.231612 -0.438686 0.378097 0.583860
grupo 0.794703 -0.200727 -0.407465 -1.056365 -0.520349 -0.885094 0.549357 0.464431 0.151030 0.367776 0.482011 -0.232105 -0.373114 -0.359340 -0.135005 0.560362 0.356150 0.775349 -0.633491 -0.206013 -0.752493 0.767276 0.191564 1.499178 -1.047789 -0.455354 0.221342 0.400412 0.774623 -0.280334 1.311128 0.536318 1.537734 0.598189 0.760828 -1.058219 0.666678 0.282548 0.342678 2.155418 1.222770 1.441707 -0.013930 -0.011007 1.361378 -0.046044 0.657530 0.794929 -1.473562 0.419232
varios -0.362552 -0.469138 1.054429 -1.102012 -0.380683 -0.700895 -0.244048 0.422357 -0.132942 1.133596 0.911946 -0.174735 -0.406137 -0.278771 0.263324 1.112889 0.912953 0.850001 -0.309079 -0.203241 -1.331693 0.345746 -0.435404 0.802412 -1.518300 -0.472757 0.193451 -0.319655 0.879659 -1.505296 1.366079 0.061740 0.958555 0.861469 0.679101 -0.453644 0.021011 -0.876505 -0.550779 1.697252 0.827438 1.212330 0.137121 -0.112950 0.902934 -0.718080 -0.091093 0.123315 -0.968094 1.254225
Es 0.031218 0.398275 0.158094 -0.363821 0.294257 -0.740098 0.117840 0.914107 0.134620 0.894170 0.102143 -0.715503 0.441737 -0.624173 -0.054972 -0.416127 -0.001125 -0.241093 -0.374162 -0.905664 -0.327355 1.354334 0.313442 0.451655 0.136119 0.104487 0.660397 -0.313995 0.556764 -1.020678 2.161549 -0.924083 0.786228 1.639473 0.440821 -0.539808 0.548419 -0.311845 -0.054920 1.552162 0.377441 0.760318 1.155973 0.111089 1.512103 -0.719292 0.652845 1.159813 -0.411815 1.291033
través -0.087777 0.045126 -0.088551 -0.448876 -0.157826 -0.993413 -0.024765 1.439720 -0.019540 -0.155723 1.268307 -0.134433 0.447839 -0.108943 0.525062 0.689181 0.284706 0.465046 0.287229 -0.229154 -0.533498 0.379129 -0.140449 1.026657 -1.216553 -0.368929 -0.500104 -0.127955 0.159688 -1.694208 1.499024 -0.433177 1.099323 0.516698 0.970086 -0.886220 0.669966 0.093710 -0.513400 1.839684 0.496181 -0.236929 0.736467 0.304953 1.848301 -0.152897 0.408407 -0.680638 -0.019915 0.828721
otro -0.239436 0.601789 0.331575 -0.878547 -0.079086 -1.296551 0.551532 0.712649 -0.180042 -0.079640 0.333935 0.075008 0.107925 -0.002766 0.088459 0.488774 0.251706 0.444627 -0.277552 -0.429721 -0.353265 1.048966 0.354375 0.305250 -0.860102 -0.355328 0.274990 -0.144272 0.589489 -0.699029 1.674853 -0.161156 0.815493 0.552797 0.486511 -1.184508 1.058133 -0.334276 0.308712 1.589390 0.867941 1.271966 1.274155 0.478754 1.831768 -0.057469 0.280178 0.562005 -0.426570 0.957842
estaba -1.167223 0.045779 0.259656 -1.534784 -0.323729 -0.305801 0.311074 0.521407 -0.619253 -0.071183 0.597474 -0.105868 0.218658 -0.712206 0.352686 -0.015327 0.503145 0.242004 0.047440 -0.271713 0.242703 0.959399 0.507615 0.122765 -0.681713 -0.603382 0.184194 0.459078 -0.301410 -1.105573 0.819350 0.396558 1.692958 -0.589100 1.245462 -1.388123 -0.192861 -0.252856 -0.276654 0.723662 1.316478 0.266318 0.626753 -0.045663 2.205930 0.216641 0.122802 1.173874 -0.768410 2.317859
encuentra -0.288364 0.410721 0.459417 -1.116489 -0.110796 -0.530769 -0.079302 1.075922 -0.014297 0.737339 1.182932 0.386410 0.636231 -0.622191 0.622932 0.466943 -0.141860 -0.668802 -0.279863 -0.588746 -0.734236 0.872651 0.008380 -0.069605 -0.189093 -0.808178 -0.452260 -1.197818 -0.448470 -1.124855 1.764959 0.014735 0.369712 1.089562 1.745552 -1.438394 0.369391 -0.162826 -0.261090 1.302188 0.610026 0.482994 0.896227 -0.371692 1.310420 -0.629833 0.744845 1.332586 0.425320 1.270958
país -1.386123 -0.888636 -0.683254 0.080711 -0.829626 -0.635899 0.936527 1.543462 0.527005 0.277868 0.999386 0.314257 1.017788 -0.919537 -0.466496 0.580337 0.032420 0.754113 0.020422 -0.328471 0.107978 1.021605 -0.417889 -0.561945 -0.170608 -0.427630 0.422037 -0.074867 0.083481 -1.764813 1.245076 0.580044 1.145538 0.323115 0.003184 -1.476464 0.267301 -0.274919 0.109610 1.721737 0.117055 1.644104 -0.241646 0.145428 1.940652 -0.932632 0.741325 0.835549 -0.542971 0.543707
externos -0.965542 -0.257243 1.874180 1.313650 -1.915063 -1.121836 -1.046967 2.145957 0.281780 -0.127351 0.406041 0.173281 -0.741704 -1.212308 -1.393810 0.308739 0.285284 -0.365083 -0.889868 -0.654000 -0.571379 -0.480108 1.568066 0.239511 -1.241859 0.482955 -0.001317 -0.154643 0.872214 -0.974438 1.341890 -2.106225 -0.625761 0.275212 0.191808 -1.482309 -0.487513 0.138414 0.600765 2.280495 -0.450481 0.153338 1.019097 -2.002809 0.018974 -0.785938 -0.806871 -0.704582 -1.138015 0.377746
obra -0.423137 1.022408 1.144159 -0.786136 -0.023434 -0.874396 0.052123 2.059133 1.434711 0.276409 0.575306 -0.677835 -0.178654 -0.472749 -0.530130 -0.095012 -0.462842 -0.314097 -0.289405 -0.104949 -1.174215 1.378778 0.680199 0.309954 -1.209023 -0.862443 -1.015719 0.155791 -0.361836 -1.320077 0.528569 -0.051530 0.493384 0.755777 0.383872 -0.097916 0.349605 -0.180005 -0.466723 0.862761 0.182665 0.896020 0.553800 0.232506 0.857890 0.460801 -0.806976 0.931810 -0.912975 2.267085
Referencias -0.609145 0.016475 1.617409 1.044600 -1.462100 -0.492092 -0.696999 2.598085 0.344384 0.746166 0.762452 0.674935 -0.745341 -1.060223 -1.312069 -0.408603 0.644635 0.331254 -1.546129 -0.112781 0.174626 0.303713 1.073110 0.155276 -1.061637 0.878682 -0.356723 0.395801 1.284091 -1.081786 1.316442 -2.131869 -0.396054 0.743556 0.136577 -1.526240 0.224003 0.663940 0.062257 2.119429 -0.392597 -0.248168 0.999026 -1.627667 0.187192 -1.084892 -0.521971 -0.434340 -0.858665 -0.473163
menos -0.483077 0.421263 -0.436667 -0.378719 0.353835 -0.613294 0.888571 0.137807 0.090452 1.252811 0.931005 0.215896 0.260867 -1.475665 0.221898 0.044598 0.991655 0.712206 -0.684136 0.379706 -0.233755 0.729866 -0.002633 0.212473 -0.320862 -0.165978 0.772717 -0.287538 0.686376 -1.168375 1.826237 -0.849709 0.724369 0.234082 0.429141 -0.619166 -0.244422 -1.438913 -0.327487 1.798010 0.082148 0.601341 0.794870 0.337096 1.964074 0.057905 0.724697 0.394447 -0.755989 1.549482
partir -0.687871 0.136050 -0.227116 -1.017697 0.125454 -0.692794 -0.248002 1.116954 0.283684 0.481885 0.344980 -0.296722 0.704762 -0.189724 0.359819 -0.019237 0.329068 0.618436 0.578678 0.252317 -1.006732 0.813143 -0.036812 0.371915 -0.923693 -0.931343 -1.029129 -0.599637 0.732975 -1.189096 1.380559 -0.162673 0.946690 0.785187 0.413939 -0.195127 -0.115223 -0.223130 0.612922 1.870628 0.804559 0.882988 0.056468 0.067727 1.705224 0.051164 -0.009708 -0.457622 -0.532751 0.827373
Enlaces -0.971823 -0.132698 1.595057 1.281063 -1.764851 -0.877076 -1.219758 2.192943 0.288302 0.133557 0.293747 0.229418 -0.629079 -1.295864 -1.300975 -0.142672 0.164322 -0.010237 -0.986562 -0.813906 -0.472109 -0.199191 1.593221 0.240643 -1.075351 0.659703 -0.193288 0.127878 1.074177 -0.884640 1.436791 -2.143879 -0.596018 0.340273 0.193474 -1.412118 -0.362654 0.059832 0.622706 2.019175 -0.543211 0.375114 0.776334 -1.838029 -0.137006 -0.671772 -0.709749 -0.541144 -1.125057 0.302566
partido -0.547236 -1.222643 0.059426 0.109969 0.811132 -1.326677 0.233689 0.812730 -1.435563 0.204659 0.196895 0.309219 0.371608 -0.039531 -0.857685 -0.284367 -0.718071 0.002987 -0.579972 0.494862 0.608291 0.498373 -0.707068 0.777251 -0.450453 0.013179 0.276383 0.479179 0.090943 -0.142019 0.073995 1.304492 1.262196 -0.355555 -0.076413 -1.528216 1.736336 0.758714 0.494562 2.692325 1.370331 2.631495 -0.017523 -0.203911 1.158938 -0.362358 0.562693 0.585532 -1.999673 0.348698
Santa -0.744314 -1.102505 0.048992 -0.779386 -1.860890 0.221565 -0.679820 1.685778 -0.954099 1.313127 1.246376 0.509476 0.450754 0.897620 0.141184 -0.449556 -0.451181 -1.118641 0.401579 -0.280603 -1.073414 1.875250 0.160893 -0.428724 -0.406539 -0.262154 0.167152 -1.209061 -0.895543 -0.009416 1.752733 0.203239 0.380168 0.086209 0.609556 -0.783180 0.969284 0.131209 -0.169461 2.364857 -0.417220 0.909053 1.611893 -0.597709 -0.740394 0.004690 0.478668 0.801627 -1.152081 1.434904
tipo 0.319146 1.347204 0.581844 -0.930762 -0.194420 -1.031169 1.427220 1.308254 -0.003040 0.008215 0.383369 -0.265402 0.356440 0.127536 -0.326609 0.714096 0.490544 0.513378 -0.880756 0.180608 -0.339156 1.055917 0.208174 0.548075 0.053991 -0.173192 0.148079 -0.918878 0.516263 -0.956340 1.754409 -0.820534 1.079297 0.882154 0.710418 0.039299 0.313632 -0.410819 0.323989 2.257228 0.470226 0.232717 0.232947 0.265232 1.325357 -0.428835 0.856751 0.108966 -0.552906 0.664172
edición -0.805406 0.504141 1.742855 0.496072 0.444658 0.435662 -0.668485 2.313596 0.149652 0.712938 -0.004867 -0.853267 -0.071905 -1.384810 -1.398573 0.349464 -0.676238 -0.205358 -0.037857 1.294012 -1.201015 0.705325 0.520608 1.578996 -1.324977 -0.900818 -0.021346 -0.409664 -0.146664 -0.798047 1.135293 -0.669610 0.085706 -0.005547 -0.401251 -0.830023 -0.411420 -0.139521 0.650740 0.914906 0.296216 1.416216 0.271137 -1.289965 1.131753 0.235442 -0.974120 -0.663198 -1.255472 1.339644
cuatro 0.069868 -0.207965 0.531082 -1.180114 0.169672 0.043077 0.298983 0.814382 -1.121619 1.305168 0.522100 -0.426936 -0.740977 -1.256003 0.199312 0.664685 0.531837 -0.268805 -0.749544 -0.418799 -0.698359 0.713859 -0.200087 0.117990 -1.466272 -0.245814 0.516980 -0.752245 0.913331 -1.208639 1.189502 0.147774 0.271810 0.447673 1.202916 -0.827709 0.536318 -1.065491 -0.471915 2.232142 1.274100 1.539305 0.452392 0.009680 0.803567 0.525897 -0.029256 -0.554255 -0.865727 0.784356
estado -1.216775 0.125247 -0.204504 -0.283537 -1.366824 -0.691442 0.891519 0.744789 -0.128081 -0.298247 1.117893 0.169727 0.650399 -0.460932 0.516042 -0.249765 0.213568 0.891052 0.465864 -0.566300 0.022026 0.676484 -0.512009 -0.285985 -0.182406 -0.154395 0.114016 -0.299019 0.845168 -1.211621 1.505690 -0.048093 0.713847 0.180576 1.145479 -2.047513 0.511192 -0.770860 0.125429 1.562596 0.231628 0.974258 0.244150 -0.752994 1.958855 -0.794496 0.365150 0.901555 -0.590275 0.898406
grandes 0.148476 -0.182591 0.000601 -1.064247 -0.697500 -0.837105 0.416438 0.521709 0.054996 1.672094 1.514323 -0.054061 -0.674382 -0.576359 0.143420 0.955049 0.861056 0.171110 -0.887898 -0.759275 -0.425041 1.041508 -0.770447 0.366058 -1.331408 0.064432 -0.139592 -0.705847 0.311205 -1.908060 1.988360 -0.102952 0.894785 -0.085006 0.245494 0.403564 -0.550136 -0.431660 -0.910658 2.316238 0.417113 0.576754 0.541678 0.506215 0.434269 -0.610416 -0.007620 0.102160 -0.503041 1.012559
presidente -2.088367 -1.614103 -0.577676 0.064966 -0.572412 -1.410564 -0.403102 1.198626 0.094525 -0.507818 0.370979 -0.531044 -0.198523 -0.477476 0.544920 0.070508 0.806875 0.297906 0.844261 -0.121881 1.406448 0.889063 0.412847 0.352103 -1.284571 -0.482576 0.597463 -0.487516 0.533846 -0.501260 1.010858 0.931905 -0.009946 1.300561 0.288268 -2.717420 1.320029 0.351276 0.357845 1.284194 0.576734 1.179601 -1.046685 1.255956 0.617634 0.513790 -0.456817 0.857100 -1.304936 1.257878
rey -1.648446 -0.682804 0.555538 -1.369583 0.453981 -0.014403 -0.020014 1.026261 -0.676992 -0.970926 -0.064053 0.337250 -0.811876 0.663120 0.723662 -0.612034 1.242080 -0.193054 0.145096 -1.139727 0.011504 0.781816 2.077084 -1.083672 -2.054291 0.097655 0.049643 0.279178 0.992207 -1.666984 1.620969 0.129055 1.047635 -0.042808 -0.328543 -0.862778 0.103346 -0.078508 0.568941 1.540113 -1.191628 0.827254 1.008883 -0.434302 1.915743 1.179577 -1.382232 1.089561 -1.079792 0.410073
También -0.433789 -0.050557 0.294055 -1.102266 -0.405917 -0.717292 -0.332277 0.777583 0.480841 0.927168 0.165354 -0.392689 -0.062817 -0.303259 -0.384311 0.210782 0.210765 0.461654 -0.027713 -0.914555 -0.804663 1.470317 0.028555 0.482448 -0.559186 -0.126094 0.144358 -0.384351 0.516333 -1.030226 1.962427 -0.489898 0.473686 1.456763 0.413018 0.033118 0.194833 0.175486 -0.235942 1.620334 0.601337 0.953626 0.749361 0.698986 1.152853 -0.034804 0.408162 0.368369 -0.600622 1.245311
Este -0.001945 0.381061 0.027916 -0.803230 0.089398 -1.332926 0.069015 0.872186 -0.148792 0.033646 0.225953 -0.591084 0.409479 0.177663 0.623617 -0.046775 -0.480703 0.344316 -0.341472 -0.740944 -0.455159 1.060977 0.201372 0.244289 -0.819987 -0.387822 0.164907 -0.480707 0.548746 -1.021012 2.064315 -0.229942 0.939210 0.796466 -0.141736 -0.487623 0.287065 0.072625 0.495314 1.615196 1.043501 1.181452 0.792796 0.341073 1.428151 -0.413295 0.761113 0.550311 -0.327024 1.453365
tienen -0.407778 0.166684 0.274282 -1.011314 -0.204404 -0.858916 1.272905 0.206684 -0.137811 0.425214 1.143888 0.023933 0.008870 -0.489744 -0.531351 0.446445 0.797621 0.523716 -0.612848 -0.275867 -0.904554 0.721401 -0.602708 0.359388 -0.190604 0.630311 0.861706 -0.606061 0.548527 -1.695289 2.006661 -0.961867 0.351508 0.527864 1.432076 0.202362 0.791682 -0.904052 -0.537561 2.706137 0.609509 0.401679 0.639748 -0.196020 1.206418 0.454412 0.975927 -0.201650 -0.049239 0.422672
mayoría -0.755638 -0.515138 -0.541670 -1.179752 -0.029905 -0.911494 0.472908 0.248827 0.349496 0.889133 0.863941 -0.271464 0.359038 -0.782954 -0.206686 0.231910 0.655361 0.293462 0.045999 -0.094832 -1.095566 0.719158 -0.444458 0.230261 -0.485924 -0.088943 0.738026 0.391421 0.262201 -1.498295 1.763025 -0.034149 0.731818 0.643729 0.854295 -0.171984 0.285560 -0.602608 -0.226013 2.311056 0.463303 0.705455 -0.082812 0.107280 1.312374 0.275598 0.749385 -0.260923 -0.939315 0.878821
eran -0.756422 -0.667060 -0.827615 -2.245350 0.110013 -0.797832 0.890412 0.271624 0.217200 1.006239 1.053788 -0.292548 -0.300343 -0.615687 -0.366916 0.521100 1.579701 0.328798 0.117207 -0.492936 -0.418982 0.715842 -0.043123 0.037716 -0.405184 -0.294212 0.939642 0.607263 0.680493 -1.897239 1.117075 -0.021351 0.888230 -0.256141 0.567014 0.297289 -0.047993 -1.249028 -0.102659 2.367203 0.558366 -0.063945 0.578094 -0.191380 0.823774 0.688457 0.470203 -0.001923 -0.916215 1.387878
cuenta -0.436251 -0.016396 1.114153 -0.779162 -0.573689 -0.740570 -0.063600 0.859985 -0.413182 0.758415 0.761819 0.984203 0.211308 -0.806036 -0.046502 0.722987 -0.364322 0.403552 -0.012186 -0.415954 -0.321891 0.713972 -0.062532 0.339474 -0.087136 -0.160397 0.383782 -1.053534 -0.272580 -1.540619 2.029161 0.157078 1.189978 0.640198 1.808955 -0.724901 0.727667 -0.206833 -0.488122 1.210412 0.059945 1.412668 0.865115 -0.095884 0.727174 -0.149252 0.826670 0.046243 -0.143523 1.461096
bien -0.921521 0.971224 0.896307 -1.425035 0.207699 -0.805377 0.563800 0.378873 0.345649 0.487427 0.823111 -0.103750 0.602883 -0.501557 -0.062145 0.153642 0.943498 0.145908 0.070163 0.076824 0.130948 0.852296 -0.289517 0.389018 -0.289437 0.053254 -0.003164 0.299649 0.058057 -1.073364 1.063971 -0.846804 1.427042 -0.043920 1.167554 -0.232359 0.256024 -0.781964 -0.060234 1.748522 0.453802 0.554713 1.027976 0.035175 1.935392 0.446724 0.370541 0.750800 -0.405519 1.577045
día -1.309439 -0.070360 -0.178404 -0.617386 -0.345065 -0.148284 -0.071321 1.186149 -1.098104 0.882003 0.555828 0.543423 0.963686 -0.265096 0.045978 0.629952 0.902888 0.644660 -0.116351 0.075831 -0.527337 1.174957 0.299993 0.000302 -1.208060 -0.505037 0.538978 0.147204 0.454391 -0.854403 1.312761 -0.383861 -0.081477 0.983165 0.184622 -0.671333 0.910093 -0.627751 0.691277 1.116712 0.252574 1.103749 1.396788 0.878304 0.896639 0.871588 0.356406 0.655219 -0.364043 1.976364
Juan -0.847742 -0.741592 0.644774 -1.216232 -0.258862 -1.038480 -0.870468 2.439400 -0.213242 0.575972 1.401811 0.493832 -0.728148 0.189442 0.465355 -0.600588 -0.478594 -0.514969 0.929468 0.150300 -0.137640 0.927952 0.609432 -0.023707 -0.897687 -0.308506 0.142160 -0.381443 0.131417 -0.465037 0.978310 -0.007619 0.556351 -0.243503 0.069709 -1.154459 1.116439 -0.313318 0.357181 1.282782 -0.891263 1.144548 1.483551 -1.060261 -0.449651 0.333268 -0.459284 0.589351 -0.765030 2.198055
hace -0.104931 0.446835 -0.038646 0.139578 0.175120 -0.332223 0.636464 1.038769 0.079566 0.044355 0.733632 0.663606 0.176813 -0.624817 -0.086221 0.414646 0.631233 0.813889 -0.029068 0.361129 -0.428981 0.855268 0.144455 0.840283 -1.085656 -0.626106 -0.141125 -0.982196 0.233597 -1.596100 1.541702 -0.240530 0.853253 0.726805 0.596681 -0.541348 -0.369438 -0.957245 0.315646 1.020885 0.281948 0.770636 1.343672 0.209439 1.722282 -0.028189 0.257926 0.718778 -0.475211 1.408968
Internacional -0.723743 0.426918 0.429014 -0.147097 0.588897 -0.429413 -2.925396 2.970700 -0.566081 -0.806400 1.106873 0.575491 -0.425324 -0.071022 -0.485918 1.266345 -0.833988 -0.003540 -0.077705 0.826759 1.925316 0.407885 -1.145653 -0.251218 0.059857 0.198794 0.896271 0.554755 0.862919 -2.671713 1.671800 -0.541830 0.245567 0.833053 0.559721 -1.085759 1.283551 1.336505 -0.405948 0.757335 -0.490617 0.803155 0.186783 -0.539872 -0.349989 0.292417 0.854692 -0.061262 0.189777 1.394990
muchos -0.598140 -0.396927 0.473451 -1.150793 -0.218273 -0.981736 0.022676 0.030131 0.702524 0.725966 1.185510 0.034155 -0.446359 0.071157 -0.206391 1.066183 1.020634 1.019902 -0.052135 -0.093953 -1.093989 0.594515 -0.405938 0.810448 -0.971894 -0.393852 0.292469 0.400073 0.820795 -1.731009 1.442844 -0.233408 1.046690 0.408431 0.739501 0.474460 -0.016824 -0.874056 -0.465103 1.652687 0.447829 0.835911 0.411009 0.051449 1.137704 -0.606298 0.226700 0.581849 -0.867379 1.532268
uso -0.842694 1.086327 0.473357 -0.925051 -0.245827 -1.438437 0.318472 0.854555 0.521128 -0.193954 -0.218501 -0.303290 0.778356 -0.362590 0.081953 0.943163 0.577739 0.666366 -0.517862 0.171173 -0.401910 0.246768 0.720131 0.538577 -0.191357 -0.221962 -0.402485 -0.180566 0.338050 -1.498148 1.804071 -1.412893 1.483413 0.599730 0.141416 0.205469 0.368792 -0.667165 0.524940 2.055437 -0.051506 0.173239 0.351916 0.276979 1.392875 -0.152068 0.829676 -0.014370 -0.885622 0.969709
tuvo -1.393736 -0.560305 0.370706 -0.714289 -0.383648 -0.496554 0.154837 0.992101 -1.121571 0.229080 0.438047 0.265267 -0.369928 -0.379339 -0.015301 -0.397849 -0.071538 0.652150 -0.316279 0.173630 -0.306013 1.460262 0.031624 0.050583 -1.311296 -0.171131 -0.200736 0.354696 0.476491 -1.294234 1.557758 0.456473 1.098025 -0.057906 0.201545 -0.289353 0.329968 0.131073 -0.498871 1.097153 0.632595 1.401010 0.148879 0.683574 1.289951 0.025894 -0.164170 0.474092 -1.318992 1.793686
dentro -0.136744 0.363489 0.118401 -0.471814 -0.440547 -1.089888 0.509296 0.854544 0.051700 0.471855 1.173595 -0.173063 0.953059 -0.136017 0.336716 0.507856 0.536289 -0.480820 -0.476550 -0.646409 -0.446459 0.733023 -0.624842 0.456802 -0.586470 -0.281938 -0.642084 -0.284331 0.090315 -1.374163 1.091796 0.150233 1.044200 0.804633 1.509368 -1.126762 0.961056 -0.423042 -0.065176 2.080417 0.691981 0.866241 0.460311 -0.322525 1.867162 -0.382408 0.373885 0.149258 -0.681263 0.150690
I -0.693004 -0.005424 0.469044 -0.907992 -0.184175 0.482480 -0.640861 2.129013 -0.389768 -0.617576 0.474090 0.651220 -0.910357 0.939565 1.019228 -0.980502 0.123000 -0.390546 0.727429 -0.072691 -0.323607 1.373029 1.528224 -1.043811 -1.964708 0.615644 0.629560 -0.805348 1.367460 -0.373571 1.213539 -0.880443 0.551825 -0.774093 -0.074179 0.004323 -0.264241 0.350444 0.542139 2.688261 -1.032805 0.531770 -0.104500 -0.572756 1.150577 0.764239 -1.584159 0.253571 -1.796489 0.939781
unos -0.106177 -0.792589 -0.237192 -0.587465 0.729317 -0.144947 0.491726 1.164595 -0.377772 1.360449 1.047321 0.474286 -0.233340 -1.008570 0.279645 0.875835 0.859155 1.050052 -0.059596 0.053375 -1.226061 -0.348918 0.304145 -0.144141 -1.120369 -1.058365 0.614107 -1.412411 0.484366 -1.827278 1.239856 -0.022572 0.472575 0.344138 0.600963 -0.606347 -0.345662 -1.833479 -0.308443 1.113487 1.131949 0.896935 0.942965 0.007924 1.572478 -0.566906 0.305331 0.475254 -0.149585 1.252351
millones 0.650662 -0.172378 -1.090460 0.284544 0.624207 -0.168181 -0.094604 1.465333 0.023969 0.937184 0.698667 0.897340 -0.028705 -1.663973 -0.230074 0.752473 0.631931 1.265596 0.148420 0.349833 -0.722710 -0.376628 1.138053 -1.633480 -0.936136 -0.444910 1.315922 -0.479242 0.546564 -2.092529 1.831428 0.709375 1.027625 0.085003 0.570294 -1.178826 -1.812169 -1.284934 -0.387880 1.084559 -0.051650 1.585563 -0.230998 1.161615 1.450538 -0.652140 1.056161 -0.990385 -0.492994 0.722348
publicación 0.400035 1.537532 -1.217951 0.241186 -0.367356 -1.940657 0.484850 1.979175 0.204012 0.625061 2.150405 0.669958 0.061209 0.328214 -0.630963 -0.273278 1.170487 -0.112280 0.594953 1.336288 -0.604678 1.083353 0.866141 0.148349 -2.014009 0.318106 -0.287176 -0.034654 0.091173 -0.874359 0.226972 -1.271537 -0.176304 0.948233 0.017838 -0.570871 0.163133 0.092375 0.470077 0.913570 1.206790 1.333272 -0.591846 -0.267757 0.084130 -0.251093 0.334727 -0.814132 -0.510387 0.570710
José -0.391792 -0.783476 0.269769 -1.116917 -0.468888 -1.732015 -0.652690 2.514328 -0.316655 0.794562 1.393423 0.082252 -1.006924 -0.276820 0.395867 -0.592104 -0.299360 0.252046 1.082142 0.447599 0.483837 0.499304 0.947999 0.464123 -0.594161 -0.242367 -0.208637 -0.390986 -0.122050 -0.023399 0.208900 0.273289 0.100689 0.260042 0.049122 -1.439004 1.537274 -0.115473 0.068916 1.417056 -0.513623 1.482774 0.959269 -1.178000 -0.500151 0.126002 -0.420892 0.306859 -1.550594 2.043044
además -0.610156 0.340627 0.632029 -0.946038 -0.265409 -0.637290 -0.223843 0.384000 0.490114 0.961798 0.463680 0.544353 0.001240 -0.362949 0.317626 0.773302 0.797462 -0.118206 -0.472531 -0.181322 -0.196861 1.288037 0.227509 0.800419 -0.895149 -0.301904 0.082088 -0.512890 0.233386 -1.613617 1.540522 -0.129457 0.903270 -0.283454 0.786369 -0.816300 0.922253 -0.518762 -0.906146 1.548961 0.217364 1.014714 -0.149702 0.661351 0.831092 -0.160303 0.458138 0.279404 -0.386135 1.029526
Mundial 0.145414 0.665958 0.149234 1.111563 -0.233766 0.210361 -1.285127 0.977311 -0.923455 1.300316 -0.808750 0.774449 0.071617 -0.687777 -1.330081 1.886351 0.064891 -0.242444 0.563291 1.195100 1.408908 0.989515 -0.382567 -1.084497 0.019032 -0.522904 0.379019 0.585316 0.462089 -2.115993 0.509578 -0.426794 1.157093 1.243259 -0.344315 -0.481532 -0.077299 1.919094 0.174096 2.514541 0.063781 1.939219 0.209235 0.513873 0.504818 -0.244233 -0.282234 -0.104351 -1.053243 1.075304
entonces -1.045252 -0.348161 -0.236241 -0.883068 0.310722 -0.688985 0.180951 0.568455 0.117094 0.243913 0.470571 0.158911 0.089996 0.007271 0.051596 -0.400467 0.724693 0.481214 0.047358 -0.515782 0.548821 1.455866 0.460894 0.387150 -0.141354 -0.750036 0.108976 -0.726024 0.612186 -1.117598 0.857382 0.460581 1.058609 0.061973 1.245222 -1.200984 1.142194 -0.516162 0.225374 1.785649 0.379346 0.845123 -0.016322 0.090123 1.501838 0.201192 -0.183249 0.703246 -0.751043 1.456861
for -0.306245 1.240554 -0.287053 0.030103 -1.296475 -0.146728 -1.083371 2.171715 0.869523 0.017365 0.245072 0.753046 -0.563010 0.705092 -0.949037 0.659149 -0.428380 -0.072092 0.741559 0.806929 -1.514915 -0.012091 0.226193 0.269420 -1.382052 1.005022 1.470925 0.068998 1.519081 0.005253 0.992289 -2.718282 1.292772 -0.171642 1.122377 -0.826269 0.274402 0.148118 0.857418 1.040618 1.638178 0.267252 -1.001932 1.265089 -0.063517 -0.344461 1.004818 -0.994115 -1.029246 1.199693
importante -0.074609 0.352152 -0.159013 -0.435211 -0.799875 -1.532539 0.363242 0.553189 0.316750 0.564045 0.674603 0.104125 0.252316 -0.223945 0.320285 0.363712 -0.528074 0.203468 -0.351028 0.027303 -0.474145 1.468690 0.052934 -0.062725 -0.540635 -0.386025 -0.399476 0.123694 0.176045 -1.907058 2.555988 0.098281 1.088057 0.475997 0.619501 -0.017137 0.722724 0.159728 -0.327393 1.415922 -0.224181 1.021020 0.172690 0.541457 1.254863 -1.004408 0.418125 0.798775 -0.683327 1.473978
poder -1.234171 -0.799464 -0.275629 0.008377 -0.437909 -1.401628 1.184183 0.466404 -0.408130 -0.067731 0.449073 -0.163525 0.105309 0.389833 0.130103 0.013610 0.774381 -0.037533 -0.080225 -0.705379 0.784304 0.473306 0.861967 0.110091 -0.603533 0.155935 0.002746 -0.469366 0.441289 -1.734118 1.274164 -0.216905 1.368917 -0.193075 0.017352 -0.889355 0.939226 -0.409838 0.642647 1.864158 0.518217 0.490337 0.410192 0.699722 2.116960 -0.076442 0.045693 0.124633 -1.240388 1.179610
estas -0.373533 0.043071 -0.379731 -1.422709 -0.074265 -1.568773 0.235673 0.662258 0.684031 0.513542 0.438840 0.023605 0.333586 -0.241530 -0.164681 -0.146398 0.822799 -0.010228 -0.370716 -0.569641 -0.182243 1.856789 -1.059474 0.388013 -1.027606 0.331597 -0.413555 -0.788689 -0.097605 -1.773587 1.405493 -0.768004 1.107821 0.577407 0.516497 0.058260 -0.095777 -0.997324 -0.113474 1.938081 0.530385 0.631515 0.761299 0.826637 1.045458 0.809546 0.642505 -0.690425 0.028178 0.781890
otra -0.353238 0.057664 0.549625 -0.747184 0.136374 -0.649110 0.127149 0.741181 0.095916 0.500589 0.414205 0.102272 0.410051 -0.337633 -0.709265 -0.151071 0.165188 -0.140003 -0.069243 0.196094 -0.931259 1.442231 0.380084 0.443576 -0.794837 -0.225090 0.235062 -0.379034 -0.667482 -0.968417 1.655930 -0.310648 0.888288 0.839183 1.064536 -0.489295 0.895849 -0.286680 -0.158671 1.210112 0.924729 0.519403 0.837579 0.356633 2.214444 0.568749 -0.131540 0.339153 -0.512373 1.192998
final -0.821288 0.124213 0.534031 -0.014707 0.650248 -0.434384 0.353140 1.067350 -0.836468 0.854918 -0.090498 0.383066 0.558121 -0.540080 -0.948699 0.582034 0.243310 -0.323373 -0.269567 1.083004 -0.210885 1.126272 -0.170811 0.063362 -1.751231 -0.431813 -0.017356 -0.106394 0.370192 -0.881510 1.110081 -0.054065 0.762298 0.119674 -0.936501 -0.875208 0.918410 0.297415 1.321320 1.859981 1.633275 1.474804 0.239379 0.786666 1.777401 -0.053478 -0.559612 0.624432 -0.650158 0.617343
imagen -1.117404 -0.091345 1.264411 -0.182367 0.102271 -0.445238 1.046645 3.661267 0.580070 -0.671106 1.197866 0.051961 0.249283 0.051586 -1.147383 0.364245 -0.722677 -0.839337 -0.078093 0.296977 -0.403638 0.753418 0.012370 0.500649 0.422605 -0.651520 0.351772 -1.166068 -0.818894 -0.578520 0.498435 0.047850 0.997138 -0.174842 0.126871 -0.341333 0.429923 -0.226077 0.386793 1.465883 1.314518 0.095979 0.613093 -0.493423 0.254753 0.012801 0.074014 0.751009 -0.749432 1.550195
María -0.529785 -0.837194 -0.151223 -1.074052 -1.015701 -0.613128 -0.055253 2.541212 -0.660916 0.460437 1.746249 -0.487306 -0.398374 0.572581 0.039063 -1.367123 0.113678 -0.214463 0.788169 -0.042707 -0.219292 1.206495 1.171072 0.410843 -0.883403 -0.429713 0.191397 -0.655054 -0.341182 0.408782 0.548463 0.547758 -0.209030 0.247333 0.687847 -0.520238 1.090670 0.279646 -0.894820 1.828558 -0.841916 1.522625 1.180533 -0.821929 -0.444350 0.811578 -0.663556 0.748563 -1.876606 1.562744
serie -0.042079 0.590447 1.207813 -0.906992 -0.116295 -0.041001 0.407264 2.040875 0.262530 1.129795 0.170204 -0.473435 0.381341 -0.595364 -0.919335 0.674955 0.574343 0.255119 -0.871314 -0.310109 -1.114902 1.215511 -0.356129 1.034048 -1.721269 -0.102055 -0.313098 0.110953 0.551811 -1.401930 1.307286 0.523600 1.739505 1.012832 0.615848 -0.664590 -0.046844 0.119143 0.161230 1.110955 1.013784 0.030427 -0.393713 0.582278 0.679332 0.271220 -1.146756 -0.251431 -0.281691 0.806235
siglo -0.747630 -0.264113 0.252078 0.168880 -0.565202 -0.561018 -0.040780 1.362783 0.174076 -0.185723 1.638760 -1.017424 -0.451839 -1.180407 0.560801 1.084739 0.186941 -0.918677 -0.004445 0.230180 0.052445 0.354200 0.227773 0.126256 -2.043903 -1.431801 -1.321042 -0.174278 0.200984 -2.481960 0.381175 -0.584861 -0.334396 -0.362917 0.537747 -0.064698 -1.824197 0.297480 1.412399 1.648668 -1.052398 1.746731 1.194202 -1.397062 1.327214 0.097527 -1.318459 -0.000148 -1.251322 1.090245
Esta -0.253530 -0.180126 0.269044 -0.312074 0.442225 -1.019777 0.056285 0.936853 0.222321 0.727036 0.374483 -0.862657 0.822302 -0.173397 -0.197389 -0.570327 -0.300333 -0.169693 -0.079497 0.228495 -1.015945 1.360890 0.445451 0.330120 -0.586369 -0.060223 0.211590 -0.388371 -0.534334 -1.404593 2.141888 -0.496504 0.920645 1.346891 0.584352 -0.051619 0.489857 -0.104922 -0.071608 1.242894 1.027865 0.270572 0.238062 0.090067 1.942160 -0.052330 0.035719 0.275026 -0.410008 1.520691
todas -0.542094 0.101802 -0.038639 -1.015759 -0.322791 -0.712789 0.386601 0.729533 0.316545 0.424768 0.442566 0.166588 0.432692 -0.667401 -0.371038 0.304298 0.711516 -0.248610 -0.370034 -0.737583 0.121815 1.392420 -0.764824 0.260818 -0.811992 0.368717 -0.056919 -0.434769 -0.235115 -1.845594 1.148634 -0.489805 1.124237 0.268597 0.900335 -0.593879 0.554400 -1.037656 0.031433 2.041862 0.114743 0.791723 0.801561 0.668506 1.373526 1.071958 0.382035 -0.690342 -0.345115 0.893058
mediante -0.563121 0.423726 0.387586 -0.481439 0.620624 -0.969256 -0.340128 1.203443 -0.524734 -0.596507 0.523730 -0.812543 0.933616 0.458514 0.457855 0.372106 0.951909 0.339582 0.267823 0.511394 -0.448089 0.124449 -0.215932 0.994708 -1.110529 -0.598220 -0.753020 -0.854596 0.052801 -1.423502 1.626869 -0.243291 1.592045 0.814830 0.748141 -0.809974 0.869562 -0.761579 0.015839 2.359721 0.354011 -0.394968 -0.094215 -0.110176 1.352070 -0.088168 0.255557 -1.251371 -0.642987 0.467287
Universidad -1.380002 -0.271456 0.221992 0.498770 -0.683015 -1.223302 -1.549207 0.713649 -0.148308 0.559515 1.144777 -0.272738 -0.243636 -0.419489 -0.678647 -0.380294 -1.069267 -1.003768 1.189690 -0.554689 -0.236353 0.263872 -0.094481 0.857795 -0.671973 -0.866675 -0.723814 -1.110891 0.527565 -1.551512 0.655399 -1.486632 0.111145 -0.465587 1.330424 -1.068535 1.185696 0.456820 -0.216874 1.248653 0.300987 2.457154 0.247569 -0.981835 -0.520430 -0.635843 0.099827 -0.525236 -1.004785 1.470582
caso -0.621300 0.622362 0.655746 -0.309504 0.095253 -1.242026 0.433373 0.397028 -0.165367 -0.118707 0.340930 -0.070190 0.368724 0.408121 -0.495788 0.201487 0.919957 0.354281 -0.233295 0.273757 -0.146165 1.151105 -0.225593 0.143907 -0.642106 -0.188252 0.272109 -0.179527 0.632450 -0.948827 1.433211 -0.551659 0.647665 0.940105 0.809876 -1.061586 0.884370 -0.452554 0.537699 2.081638 0.175590 0.489883 0.581937 0.313402 1.407330 0.197346 0.077725 0.396345 -0.196297 1.070264
principal -0.101067 0.245408 0.278079 -1.083544 -0.611184 -1.135681 0.506456 1.327557 0.063590 0.372651 0.373851 -0.094353 0.439312 -0.400118 0.341283 0.546571 -0.638396 -0.290929 -0.499964 -0.273489 -0.349772 1.389259 0.669362 0.303323 -0.232655 -0.297721 0.062903 0.117384 0.191717 -1.293269 2.399298 -0.053133 0.890590 0.559328 0.959977 -0.448359 1.233973 0.619761 -0.344588 1.399271 0.264925 0.553579 0.084229 0.542614 0.994754 -0.585925 0.398946 0.991653 -0.473289 1.196775
